svm_type c_svc
kernel_type rbf
gamma 0.5
nr_class 6
total_sv 72
rho -0.0250786 0.0317034 0.073248 -0.0100259 0.0308444 0.0412037 0.0852248 0.004408 0.0218538 -0.0707665 -0.0568947 -0.133703 -0.0830702 0.00532687 0.0298419
label 1 2 3 4 5 6
nr_sv 12 12 12 12 12 12
SV
1 1 1 1 1 0:0 1:0.33833405 2:0.058479469 3:0.11684507 4:0.18727711 5:0.12216646 6:0.17688252 
1 1 1 1 1 0:0 1:0.44434178 2:0.13483104 3:0.06886518 4:0.075840026 5:0.11534319 6:0.16237372 
1 1 1 1 1 0:0 1:0.39959246 2:0.05503701 3:0.099350594 4:0.12556042 5:0.16125083 6:0.16053961 
1 1 1 1 1 0:0 1:0.27655685 2:0.14662112 3:0.094955094 4:0.15697506 5:0.19351965 6:0.13276146 
1 1 1 1 1 0:0 1:0.4692421 2:0.06599167 3:0.072429486 4:0.0765137 5:0.13754183 6:0.18058383 
1 1 1 1 1 0:0 1:0.3519136 2:0.09417519 3:0.066430919 4:0.14302009 5:0.20683591 6:0.14017284 
1 1 1 1 1 0:0 1:0.5694117 2:0.061501004 3:0.020046325 4:0.032169908 5:0.15182489 6:0.16652408 
1 1 1 1 1 0:0 1:0.27827957 2:0.040362298 3:0.09488187 4:0.2537964 5:0.17536603 6:0.15872541 
1 1 1 1 1 0:0 1:0.26456639 2:0.10341033 3:0.028774519 4:0.12621966 5:0.37895867 6:0.099593282 
1 1 1 1 1 0:0 1:0.2183551 2:0.016053766 3:0.19184366 4:0.11167694 5:0.33350599 6:0.13077503 
1 1 1 1 1 0:0 1:0.57327938 2:0.050423924 3:0.0375438 4:0.042998753 5:0.096884862 6:0.20085828 
1 1 1 1 1 0:0 1:0.58349776 2:0.061456665 3:0.013415392 4:0.050193977 5:0.10270796 6:0.19050263 
-1 1 1 1 1 0:0 1:0.57577831 2:0.047397409 3:0.015816299 4:0.036750879 5:0.12820114 6:0.1972001 
-1 1 1 1 1 0:0 1:0.33031577 2:0.032793894 3:0.01987125 4:0.17194408 5:0.33164284 6:0.11457596 
-1 1 1 1 1 0:0 1:0.5172174 2:0.04932924 3:0.048576578 4:0.055814303 5:0.15872167 6:0.17156963 
-1 1 1 1 1 0:0 1:0.38791746 2:0.036989786 3:0.024445873 4:0.093661398 5:0.27897602 6:0.17910659 
-1 1 1 1 1 0:0 1:0.34015197 2:0.012557345 3:0.20809227 4:0.15062502 5:0.13105138 6:0.15875822 
-1 1 1 1 1 0:0 1:0.34137541 2:0.025614355 3:0.13711548 4:0.14144194 5:0.21239829 6:0.14300232 
-1 1 1 1 1 0:0 1:0.40400237 2:0.017683031 3:0.08264371 4:0.091291957 5:0.22296897 6:0.18256105 
-1 1 1 1 1 0:0 1:0.24661411 2:0.092713758 3:0.27289584 4:0.11301143 5:0.14287718 6:0.13327666 
-1 1 1 1 1 0:0 1:0.36930653 2:0.11767738 3:0.056772627 4:0.091824248 5:0.19197781 6:0.17465168 
-1 1 1 1 1 0:0 1:0.55397391 2:0.065251268 3:0.0064547947 4:0.036730628 5:0.15232159 6:0.18713649 
-1 1 1 1 1 0:0 1:0.33000153 2:0.18170354 3:0.021967536 4:0.038525846 5:0.24215546 6:0.18703616 
-1 1 1 1 1 0:0 1:0.47947586 2:0.059479836 3:0.015323184 4:0.11090014 5:0.16994269 6:0.16594568 
-1 -1 1 1 1 0:0 1:0.31170109 2:0.010051844 3:0.19855532 4:0.13721813 5:0.11983758 6:0.22397372 
-1 -1 1 1 1 0:0 1:0.25724229 2:0.01664185 3:0.12382775 4:0.19764799 5:0.26405701 6:0.14324549 
-1 -1 1 1 1 0:0 1:0.41291547 2:0.011043673 3:0.10923741 4:0.14899614 5:0.14086168 6:0.17793515 
-1 -1 1 1 1 0:0 1:0.1128908 2:0.018998034 3:0.13613024 4:0.41048458 5:0.22852829 6:0.094357058 
-1 -1 1 1 1 0:0 1:0.14473379 2:0.054472249 3:0.22699121 4:0.25262865 5:0.20189361 6:0.12067018 
-1 -1 1 1 1 0:0 1:0.15164864 2:0.042789217 3:0.17296322 4:0.2710976 5:0.20521057 6:0.15789044 
-1 -1 1 1 1 0:0 1:0.36454433 2:0.08534456 3:0.048010871 4:0.10797087 5:0.19862607 6:0.19660471 
-1 -1 1 1 1 0:0 1:0.42615929 2:0.01364968 3:0.08405675 4:0.078404307 5:0.15630014 6:0.24691524 
-1 -1 1 1 1 0:0 1:0.15676741 2:0.046398383 3:0.32715154 4:0.15051208 5:0.10337571 6:0.21908724 
-1 -1 1 1 1 0:0 1:0.30831659 2:0.014074409 3:0.25498626 4:0.083116144 5:0.093588151 6:0.24719502 
-1 -1 1 1 1 0:0 1:0.16858429 2:0.0063194507 3:0.27841291 4:0.2748999 5:0.1391958 6:0.13455138 
-1 -1 1 1 1 0:0 1:0.10137001 2:0.072572626 3:0.30358809 4:0.23875779 5:0.15254128 6:0.13355213 
-1 -1 -1 1 1 0:0 1:0.24262144 2:0.12488665 3:0.02657179 4:0.22077651 5:0.26010263 6:0.12673061 
-1 -1 -1 1 1 0:0 1:0.20678139 2:0.025769223 3:0.085376784 4:0.36925226 5:0.16491345 6:0.15102202 
-1 -1 -1 1 1 0:0 1:0.21216948 2:0.058401581 3:0.089149609 4:0.36108789 5:0.129529 6:0.15113151 
-1 -1 -1 1 1 0:0 1:0.25923151 2:0.018180633 3:0.10847562 4:0.35580316 5:0.11936404 6:0.14083014 
-1 -1 -1 1 1 0:0 1:0.24852961 2:0.054958932 3:0.10599633 4:0.25727487 5:0.20228568 6:0.13290402 
-1 -1 -1 1 1 0:0 1:0.16546647 2:0.077833511 3:0.14369446 4:0.2624945 5:0.18463691 6:0.16895142 
-1 -1 -1 1 1 0:0 1:0.44350064 2:0.033829954 3:0.072086714 4:0.13292879 5:0.13487312 6:0.18499388 
-1 -1 -1 1 1 0:0 1:0.23836611 2:0.21103524 3:0.075472914 4:0.17499271 5:0.13444345 6:0.16712047 
-1 -1 -1 1 1 0:0 1:0.26140025 2:0.20781384 3:0.045640871 4:0.18178117 5:0.16162443 6:0.14320579 
-1 -1 -1 1 1 0:0 1:0.29920065 2:0.12131569 3:0.020406507 4:0.18933024 5:0.22242829 6:0.14890577 
-1 -1 -1 1 1 0:0 1:0.14594674 2:0.34221926 3:0.033493251 4:0.16489302 5:0.22983542 6:0.084698193 
-1 -1 -1 1 1 0:0 1:0.18611011 2:0.094331719 3:0.074845232 4:0.27046299 5:0.25123465 6:0.12526527 
-1 -1 -1 -1 1 0:0 1:0.48215592 2:0.0097796619 3:0.036811125 4:0.088505752 5:0.1767749 6:0.20873401 
-1 -1 -1 -1 1 0:0 1:0.36384726 2:0.048847351 3:0.13110103 4:0.15736915 5:0.11003565 6:0.19163322 
-1 -1 -1 -1 1 0:0 1:0.54588091 2:0.026877319 3:0.0071266214 4:0.046628945 5:0.1964899 6:0.18056305 
-1 -1 -1 -1 1 0:0 1:0.2249544 2:0.041128334 3:0.2033637 4:0.18896466 5:0.18137792 6:0.16220258 
-1 -1 -1 -1 1 0:0 1:0.33382279 2:0.02315291 3:0.081203498 4:0.1982154 5:0.22010379 6:0.1444502 
-1 -1 -1 -1 1 0:0 1:0.58127421 2:0.14023033 3:0.006930375 4:0.0084734727 5:0.096715622 6:0.16775145 
-1 -1 -1 -1 1 0:0 1:0.19530359 2:0.092204913 3:0.043067336 4:0.28327683 5:0.23752265 6:0.15111928 
-1 -1 -1 -1 1 0:0 1:0.38792676 2:0.072050802 3:0.073952727 4:0.10614256 5:0.18441659 6:0.17711256 
-1 -1 -1 -1 1 0:0 1:0.18983667 2:0.10177698 3:0.072408944 4:0.27253649 5:0.21721271 6:0.14725547 
-1 -1 -1 -1 1 0:0 1:0.43179381 2:0.066480502 3:0.055617906 4:0.10255346 5:0.17045122 6:0.17432986 
-1 -1 -1 -1 1 0:0 1:0.33726576 2:0.13704598 3:0.012846743 4:0.091470368 5:0.25976139 6:0.16264889 
-1 -1 -1 -1 1 0:0 1:0.34667662 2:0.16801716 3:0.0053765615 4:0.043014586 5:0.29154998 6:0.14680067 
-1 -1 -1 -1 -1 0:0 1:0.25329155 2:0.1634157 3:0.019664207 4:0.077890456 5:0.37862501 6:0.10850252 
-1 -1 -1 -1 -1 0:0 1:0.38082322 2:0.036586352 3:0.049333278 4:0.09246359 5:0.29188511 6:0.1511189 
-1 -1 -1 -1 -1 0:0 1:0.24775065 2:0.063129246 3:0.1950395 4:0.13037845 5:0.17625555 6:0.18851487 
-1 -1 -1 -1 -1 0:0 1:0.26847136 2:0.10781813 3:0.053621933 4:0.15913652 5:0.23976952 6:0.17638117 
-1 -1 -1 -1 -1 0:0 1:0.41229892 2:0.050001122 3:0.035651106 4:0.070733808 5:0.22618604 6:0.20839846 
-1 -1 -1 -1 -1 0:0 1:0.19455838 2:0.15949611 3:0.051432535 4:0.16241306 5:0.29433888 6:0.13903235 
-1 -1 -1 -1 -1 0:0 1:0.2073015 2:0.12795544 3:0.1765123 4:0.15113367 5:0.19615118 6:0.14233525 
-1 -1 -1 -1 -1 0:0 1:0.24965811 2:0.087536767 3:0.20790565 4:0.12158553 5:0.17573448 6:0.16054495 
-1 -1 -1 -1 -1 0:0 1:0.18400119 2:0.064606942 3:0.14871649 4:0.22370119 5:0.22664979 6:0.15401521 
-1 -1 -1 -1 -1 0:0 1:0.25835454 2:0.17289984 3:0.040479012 4:0.083778955 5:0.28934166 6:0.16120176 
-1 -1 -1 -1 -1 0:0 1:0.12238856 2:0.17303465 3:0.12340009 4:0.29451072 5:0.19495577 6:0.093930773 
-1 -1 -1 -1 -1 0:0 1:0.15503339 2:0.12731823 3:0.18768744 4:0.19833046 5:0.17549381 6:0.15750213 
