svm_type c_svc
kernel_type polynomial
degree 3
gamma 0.5
coef0 0
nr_class 6
total_sv 66
rho 1.42625 2.10859 -0.449415 -0.339088 1.715 0.634414 0.00673305 -2.18262 1.23446 -0.364072 -1.23157 0.877935 -0.186993 0.616622 1.85217
label 1 2 3 4 5 6
nr_sv 12 11 11 9 12 11
SV
0 0 5.199081061305245e-021 8.175841401204228e-021 3.961209572903098e-022 0:0 1:0.0011161759 2:0.001990956 3:0.0080544297 4:0.020060549 5:0.033545021 6:0.04944342 7:0.034601428 8:0.00051282818 9:0 10:0 11:0 12:0 13:15.05164 14:23.750437 15:92.455872 16:230.43817 17:362.14786 18:595.40625 19:515.61847 20:8.5925245 21:0 22:0 23:0 24:0 25:1.6872559 26:3.8879888 27:13.73945 28:30.685772 29:47.111233 30:68.028091 31:25.211933 32:0.21224532 33:0 34:0 35:0 36:0 37:2.9630761 38:10.68509 39:40.752205 40:95.746132 41:173.59108 42:190.74594 43:74.394325 44:0.23956138 45:0 46:0 47:0 48:0 49:4.4623251 50:7.5426641 51:44.040096 52:111.94798 53:195.88983 54:284.07413 55:123.0435 56:0.79100901 57:0 58:0 59:0 60:0 61:4.7193675 62:6.972928 63:26.299377 64:68.643105 65:112.55613 66:179.99997 67:145.00134 68:2.3568347 69:0 70:0 71:0 72:0 73:8.1191273 74:13.16587 75:49.733139 76:127.58902 77:220.7865 78:320.86807 79:263.81647 80:4.8091087 81:0 82:0 83:0 84:0 85:15.338213 86:22.531309 87:93.227631 88:221.17059 89:368.2963 90:602.12677 91:484.08679 92:8.8912745 93:0 94:0 95:0 96:0 97:30.388737 98:46.279751 99:185.67545 100:451.58917 101:730.40961 102:1197.4832 103:999.66986 104:17.483286 105:0 106:0 107:0 108:0 109:17.024351 110:26.417315 111:106.95904 112:251.83667 113:415.37305 114:670.1062 115:509.26376 116:9.1030064 117:0 118:0 119:0 120:0 121:18.300171 122:33.214409 123:133.97188 124:316.89697 125:541.85278 126:792.8252 127:558.44623 128:9.1303234 129:0 130:0 131:0 132:0 133:19.799423 134:30.071987 135:137.2597 136:333.09872 137:564.15216 138:886.1524 139:607.09497 140:9.6817703 141:0 142:0 143:0 144:0 145:20.056459 146:29.502239 147:119.51898 148:289.79382 149:480.8176 150:782.07825 151:629.05371 152:11.247596 153:0 154:0 155:0 156:0 157:23.456224 158:35.69519 159:142.95265 160:348.73984 161:589.04852 162:922.94611 163:747.86847 164:13.69987 165:0 166:0 167:0 168:0 169:2.2187238 170:5.8419418 171:26.978912 172:72.60009 173:105.94755 174:129.02097 175:36.584167 176:0.28843579 177:0 178:0 179:0 180:0 181:17.269247 182:29.590391 183:119.42671 184:303.01831 185:468.0618 186:724.37665 187:552.16742 188:8.8804464 189:0 190:0 191:0 192:0 193:3.9048634 194:9.7279406 195:40.710308 196:103.26582 197:153.02515 198:196.99948 199:61.761494 200:0.50016826 201:0 202:0 203:0 204:0 205:5.1806841 206:16.525036 207:67.723106 208:168.32603 209:279.505 210:319.71729 211:110.94386 212:0.52748424 213:0 214:0 215:0 216:0 217:6.6799326 218:13.382612 219:71.011002 220:184.52794 221:301.80408 222:413.04578 223:159.59325 224:1.078932 225:0 226:0 227:0 228:0 229:6.936975 230:12.812881 231:53.270241 232:141.22299 233:218.46994 234:308.97107 235:181.55101 236:2.6447575 237:0 238:0 239:0 240:0 241:10.336734 242:19.005821 243:76.704002 244:200.16887 245:326.70068 246:449.83984 247:300.3667 248:5.0970311 249:0 250:0 251:0 252:0 253:2.978708 254:11.147823 255:31.015064 256:86.837372 257:163.00612 258:165.23468 259:69.51088 260:0.33905277 261:0 262:0 263:0 264:0 265:18.02923 266:34.896267 267:123.46281 268:317.25568 269:525.12024 270:760.59131 271:585.09491 272:8.9310637 273:0 274:0 275:0 276:0 277:4.6648479 278:15.033817 279:44.746441 280:117.50309 281:210.08385 282:233.21356 283:94.688522 284:0.5507853 285:0 286:0 287:0 288:0 289:5.9406691 290:21.830917 291:71.759216 292:182.56339 293:336.56366 294:355.93146 295:143.87079 296:0.57810128 297:0 298:0 299:0 300:0 301:7.4399176 302:18.688494 303:75.047104 304:198.76508 305:358.86288 306:449.25998 307:192.52028 308:1.1295489 309:0 310:0 311:0 312:0 313:7.6969604 314:18.118759 315:57.306385 316:155.46051 317:275.52856 318:345.18512 319:214.47804 320:2.6953747 321:0 322:0 323:0 324:0 325:11.09672 326:24.311701 327:80.74012 328:214.40613 329:383.75946 330:486.05453 331:333.29364 332:5.1476488 333:0 334:0 335:0 336:0 337:4.3789372 338:8.1277437 339:35.806618 340:93.907455 341:148.82874 342:222.49059 343:135.1815 344:1.6673615 345:0 346:0 347:0 348:0 349:19.429459 350:31.87619 351:128.25439 352:324.32593 353:510.94354 354:817.84583 355:650.76501 356:10.259373 357:0 358:0 359:0 360:0 361:6.0650749 362:12.013738 363:49.538021 364:124.57332 365:195.90707 366:290.46857 367:160.35939 368:1.8790942 369:0 370:0 371:0 372:0 373:7.3408952 374:18.810841 375:76.550781 376:189.63367 377:322.38705 378:413.18619 379:209.54147 380:1.9064102 381:0 382:0 383:0 384:0 385:8.8401451 386:15.668415 387:79.838684 388:205.83548 389:344.68604 390:506.51486 391:258.19107 392:2.4578576 393:0 394:0 395:0 396:0 397:9.097188 398:15.09868 399:62.097973 400:162.53058 401:261.35205 402:402.44049 403:280.14877 404:4.0236835 405:0 406:0 407:0 408:0 409:12.496946 410:21.291616 411:85.531708 412:221.47653 413:369.58218 414:543.30963 415:398.96436 416:6.4759569 417:0 418:0 419:0 420:0 421:4.6997399 422:6.9987068 423:31.371492 424:72.8386 425:129.90558 426:206.24805 427:162.89053 428:2.2688961 429:0 430:0 431:0 432:0 433:19.750263 434:30.747154 435:123.81926 436:303.25665 437:492.02045 438:801.60498 439:678.47461 440:10.860908 441:0 442:0 443:0 444:0 445:6.38588 446:10.884706 447:45.102879 448:103.50423 449:176.98352 450:274.22662 451:188.0683 452:2.4806287 453:0 454:0 455:0 456:0 457:7.6616998 458:17.681803 459:72.115662 460:168.56456 461:303.46378 462:396.94476 463:237.25058 464:2.5079448 465:0 466:0 467:0 468:0 469:9.1609478 470:14.539378 471:75.403534 472:184.76624 473:325.76285 474:490.2735 475:285.90002 476:3.0593925 477:0 478:0 479:0 480:0 481:9.4179926 482:13.969645 483:57.662819 484:141.46156 485:242.42841 486:386.19791 487:307.85782 488:4.6252184 489:0 490:0 491:0 492:0 493:12.817754 494:20.162586 495:81.096581 496:200.40726 497:350.65927 498:527.06738 499:426.67346 500:7.0774913 501:0 502:0 503:0 504:0 505:7.3884697 506:11.357456 507:48.620441 508:117.69595 509:196.09999 510:314.00253 511:258.83112 512:3.5462611 513:0 514:0 515:0 516:0 517:22.438995 518:35.105915 519:141.06818 520:348.11423 521:558.21442 522:909.36053 523:774.41516 524:12.138274 525:0 526:0 527:0 528:0 529:9.0746098 530:15.243453 531:62.351807 532:148.36166 533:243.17796 534:381.98193 535:284.00912 536:3.7579937 537:0 538:0 539:0 540:0 541:10.35043 542:22.040552 543:89.364601 544:213.42183 545:369.65817 546:504.70001 547:333.19147 548:3.7853103 549:0 550:0 551:0 552:0 553:11.849679 554:18.898129 555:92.652481 556:229.6236 557:391.9567 558:598.02832 559:381.84106 560:4.3367577 561:0 562:0 563:0 564:0 565:12.10672 566:18.328396 567:74.911736 568:186.31892 569:308.62289 570:493.95392 571:403.79855 572:5.9025831 573:0 574:0 575:0 576:0 577:15.506479 578:24.521339 579:98.345512 580:245.26462 581:416.8537 582:634.82239 583:522.61438 584:8.3548574 585:0 586:0 587:0 
9.657926638087137e-022 0 0 0 0 0:0 1:0.0012065467 2:0.001749484 3:0.0070281648 4:0.018791927 5:0.034175493 6:0.048804425 7:0.036375966 8:0.0011762893 9:0 10:0 11:0 12:0 13:15.200758 14:20.557753 15:80.205925 16:235.1918 17:416.5325 18:694.69934 19:647.58344 20:27.924797 21:0 22:0 23:0 24:0 25:6.7021561 26:8.323864 27:41.497013 28:97.715897 29:171.20726 30:208.08838 31:129.10764 32:0.64896071 33:0 34:0 35:0 36:0 37:3.4455624 38:6.9373951 39:26.995495 40:54.780682 41:122.93352 42:127.79122 43:36.636646 44:0.019439086 45:0 46:0 47:0 48:0 49:2.6497662 50:3.7692807 51:15.682954 52:42.134773 53:90.891266 54:94.33371 55:36.208073 56:0.16136475 57:0 58:0 59:0 60:0 61:5.2922297 62:7.7103052 63:31.604593 64:78.391167 65:144.04013 66:215.98772 67:126.1124 68:2.605962 69:0 70:0 71:0 72:0 73:6.7125449 74:10.70578 75:37.03159 76:114.8324 77:187.48051 78:277.22269 79:230.44255 80:7.6424108 81:0 82:0 83:0 84:0 85:16.332308 86:21.471268 87:87.616791 88:224.70717 89:387.17319 90:643.70691 91:602.96716 92:23.759655 93:0 94:0 95:0 96:0 97:31.531858 98:42.027279 99:167.81566 100:459.88034 101:803.67163 102:1338.3564 103:1250.5161 104:51.683281 105:0 106:0 107:0 108:0 109:23.033257 110:29.793381 111:129.10677 112:322.40427 113:558.34613 114:851.74628 115:732.03937 116:24.40744 117:0 118:0 119:0 120:0 121:19.776661 122:28.406912 123:114.60526 124:279.46912 125:510.07214 126:771.44891 127:639.56836 128:23.77792 129:0 130:0 131:0 132:0 133:18.980864 134:25.238802 135:103.29269 136:266.82333 137:478.02991 138:737.99261 139:639.14001 140:23.919844 141:0 142:0 143:0 144:0 145:21.623323 146:29.179825 147:119.21432 148:303.07953 149:531.17896 150:859.64502 151:729.04419 152:26.364445 153:0 154:0 155:0 156:0 157:23.043644 158:32.175301 159:124.64138 160:339.521 161:574.61902 162:920.88049 163:833.37305 164:31.400892 165:0 166:0 167:0 168:0 169:6.3120546 170:8.5657396 171:34.150829 172:81.206429 173:169.29689 174:215.259 175:128.70694 176:3.2382791 177:0 178:0 179:0 180:0 181:21.511608 182:29.121742 183:114.34973 184:316.37939 185:585.79553 186:909.90918 187:776.25446 188:31.161909 189:0 190:0 191:0 192:0 193:13.013004 194:16.887854 195:75.6408 196:178.90334 197:340.47055 198:423.29907 199:257.77844 200:3.8860629 201:0 202:0 203:0 204:0 205:9.7564106 206:15.501386 207:61.139282 208:135.96832 209:292.19656 210:343.00241 211:165.30743 212:3.2565415 213:0 214:0 215:0 216:0 217:8.9606142 218:12.333271 219:49.82674 220:123.32234 221:260.15433 222:309.54465 223:164.87865 224:3.3984666 225:0 226:0 227:0 228:0 229:11.603076 230:16.274296 231:65.748383 232:159.57872 233:313.30371 234:431.19806 235:254.7831 236:5.8430634 237:0 238:0 239:0 240:0 241:13.023392 242:19.26977 243:71.175362 244:196.01994 245:356.7431 246:492.43341 247:359.11267 248:10.879514 249:0 250:0 251:0 252:0 253:4.1323314 254:6.2343855 255:24.020943 256:79.046944 257:144.17555 258:160.16476 259:55.162994 260:0.090527646 261:0 262:0 263:0 264:0 265:19.331881 266:26.790388 267:104.21983 268:314.21988 269:560.67407 270:854.8136 271:702.71027 272:28.014162 273:0 274:0 275:0 276:0 277:10.833282 278:14.556497 279:65.510948 280:176.74405 281:315.34879 282:368.20407 283:184.23473 284:0.73831218 285:0 286:0 287:0 288:0 289:7.5766883 290:13.170032 291:51.009407 292:133.80891 293:267.07465 294:287.90701 295:91.763557 296:0.10879042 297:0 298:0 299:0 300:0 301:6.7808914 302:10.001919 303:39.696869 304:121.16302 305:235.03256 306:254.44957 307:91.335129 308:0.25071612 309:0 310:0 311:0 312:0 313:9.4233532 314:13.942941 315:55.618534 316:157.41949 317:288.18158 318:376.10367 319:181.23949 320:2.695313 321:0 322:0 323:0 324:0 325:10.843671 326:16.938414 327:61.045509 328:193.86049 329:331.62152 330:437.3385 331:285.56891 332:7.7317605 333:0 334:0 335:0 336:0 337:2.3311124 338:5.3734417 339:21.550856 340:74.859245 341:127.68578 342:146.23967 343:54.133911 344:0.41469467 345:0 346:0 347:0 348:0 349:17.530664 350:25.929443 351:101.74973 352:310.03226 353:544.18488 354:840.88928 355:701.68127 356:28.338326 357:0 358:0 359:0 360:0 361:9.0320635 362:13.695557 363:63.040871 364:172.5563 365:298.85956 366:354.27924 367:183.20528 368:1.0624793 369:0 370:0 371:0 372:0 373:5.7754674 374:12.309084 375:48.539349 376:129.62141 377:250.5854 378:273.9819 379:90.734344 380:0.43295759 381:0 382:0 383:0 384:0 385:4.9796715 386:9.1409721 387:37.226803 388:116.97538 389:218.54338 390:240.52431 391:90.305923 392:0.57488316 393:0 394:0 395:0 396:0 397:7.6221333 398:13.081996 399:53.148426 400:153.23195 401:271.69202 402:362.17841 403:180.21017 404:3.0194807 405:0 406:0 407:0 408:0 409:9.042449 410:16.077471 411:58.575455 412:189.67291 413:315.13187 414:423.41367 415:284.5397 416:8.0559282 417:0 418:0 419:0 420:0 421:4.1285071 422:6.1549206 423:26.709572 424:68.670357 425:120.69626 426:186.65384 427:132.13388 428:3.3154032 429:0 430:0 431:0 432:0 433:19.328058 434:26.710922 435:106.90846 436:303.84344 437:537.1947 438:881.30347 439:779.68121 440:31.239035 441:0 442:0 443:0 444:0 445:10.829454 446:14.477035 447:68.199547 448:166.36751 449:291.86954 450:394.69363 451:261.20535 452:3.9631877 453:0 454:0 455:0 456:0 457:7.5728636 458:13.090568 459:53.69804 460:123.43238 461:243.59554 462:314.39636 463:168.7343 464:3.3336656 465:0 466:0 467:0 468:0 469:6.7770667 470:9.9224539 471:42.385471 472:110.78642 473:211.55357 474:280.93884 475:168.30585 476:3.4755919 477:0 478:0 479:0 480:0 481:9.4195299 482:13.863479 483:58.307137 484:147.04292 485:264.70236 486:402.59213 487:258.21042 488:5.9201894 489:0 490:0 491:0 492:0 493:10.839843 494:16.85895 495:63.734131 496:183.48415 497:308.14215 498:463.82758 499:362.53979 500:10.956638 501:0 502:0 503:0 504:0 505:6.7667084 506:10.204618 507:38.968555 508:94.556831 509:184.05748 510:266.0976 511:232.98528 512:8.1843824 513:0 514:0 515:0 516:0 517:21.966255 518:30.760614 519:119.16747 520:329.72974 521:600.55652 522:960.74811 523:880.5329 524:36.108013 525:0 526:0 527:0 528:0 529:13.467657 530:18.52673 531:80.458595 532:192.25371 533:355.2308 534:474.13788 535:362.05679 536:8.8321657 537:0 538:0 539:0 540:0 541:10.211063 542:17.140261 543:65.957054 544:149.3187 545:306.9566 546:393.84079 547:269.58539 548:8.2026415 549:0 550:0 551:0 552:0 553:9.415267 554:13.97215 555:54.64452 556:136.67282 557:274.91486 558:360.38339 559:269.15723 560:8.3445692 561:0 562:0 563:0 564:0 565:12.05773 566:17.91317 567:70.566147 568:172.92912 569:328.0636 570:482.03662 571:359.06122 572:10.789165 573:0 574:0 575:0 576:0 577:13.478044 578:20.908648 579:75.993149 580:209.37039 581:371.50357 582:543.27148 583:463.39053 584:15.825616 585:0 586:0 587:0 
4.670809527176762e-021 0 0 0 0 0:0 1:0.00096538052 2:0.0015084181 3:0.0063356566 4:0.016110467 5:0.027725818 6:0.045676209 7:0.046397578 8:0.0046150922 9:0 10:0 11:0 12:0 13:13.55283 14:21.628735 15:73.90435 16:194.87714 17:309.76724 18:550.04333 19:699.62195 20:96.77359 21:0 22:0 23:0 24:0 25:1.3330878 26:2.5266368 27:10.0525 28:30.048939 29:50.599506 30:74.540405 31:72.503166 32:2.9860909 33:0 34:0 35:0 36:0 37:3.0489285 38:3.7392721 39:21.491396 40:52.243835 41:91.454597 42:165.43735 43:112.64738 44:1.9581559 45:0 46:0 47:0 48:0 49:4.3300791 50:4.9911404 51:36.603867 52:84.670273 53:174.28619 54:246.50337 55:161.48373 56:4.1050539 57:0 58:0 59:0 60:0 61:5.3651247 62:8.6931581 63:36.405193 64:87.729942 65:151.92221 66:241.1537 67:244.80852 68:18.283548 69:0 70:0 71:0 72:0 73:4.3723621 74:8.4248352 75:31.55859 76:84.470238 77:141.03992 78:236.4381 79:247.05504 80:28.905109 81:0 82:0 83:0 84:0 85:13.522531 86:19.577263 87:71.320076 88:173.25352 89:311.11832 90:563.10809 91:678.12122 92:88.654182 93:0 94:0 95:0 96:0 97:27.074392 98:41.204487 99:145.21803 100:368.11444 101:620.85724 102:1113.1036 103:1377.6934 104:185.42317 105:0 106:0 107:0 108:0 109:14.854651 110:22.102386 111:81.366234 112:203.28632 113:361.69028 114:637.60175 115:750.57495 116:91.635658 117:0 118:0 119:0 120:0 121:16.57049 122:23.315025 123:92.805107 124:225.48125 125:402.54495 126:728.4986 127:790.71851 128:90.607735 129:0 130:0 131:0 132:0 133:17.851641 134:24.566889 135:107.9176 136:257.90756 137:485.37628 138:809.56433 139:839.55621 140:92.754623 141:0 142:0 143:0 144:0 145:18.886688 146:28.268908 147:107.7189 148:260.96729 149:463.01266 150:804.21448 151:922.88007 152:106.93311 153:0 154:0 155:0 156:0 157:17.893923 158:28.000582 159:102.87232 160:257.70755 161:452.13019 162:799.49921 163:925.12653 164:117.55469 165:0 166:0 167:0 168:0 169:1.1512102 170:1.8698409 171:11.234161 172:24.872686 173:47.197411 174:74.870834 175:66.553741 176:5.3647919 177:0 178:0 179:0 180:0 181:14.703075 182:23.497066 183:85.132118 184:219.73361 185:356.93683 186:624.86761 187:766.12762 188:102.1337 189:0 190:0 191:0 192:0 193:2.4833329 194:4.3949699 195:21.280325 196:54.905437 197:97.769417 198:149.36563 199:139.01088 200:8.346261 201:0 202:0 203:0 204:0 205:4.1991735 206:5.607605 207:32.719208 208:77.100403 209:138.62425 210:240.26242 211:179.15442 212:7.3183284 213:0 214:0 215:0 216:0 217:5.4803228 218:6.8594728 219:47.831688 220:109.52676 221:221.4559 222:321.32794 223:227.99066 224:9.46523 225:0 226:0 227:0 228:0 229:6.5153694 230:10.561492 231:47.633011 232:112.58656 233:199.09166 234:315.97784 235:311.31467 236:23.643719 237:0 238:0 239:0 240:0 241:5.5226059 242:10.293166 243:42.786411 244:109.32681 245:188.20973 246:311.26361 247:313.5618 248:34.265301 249:0 250:0 251:0 252:0 253:3.6681221 254:6.5005736 255:30.484798 256:81.788925 257:108.94221 258:164.52022 259:139.19145 260:1.4927312 261:0 262:0 263:0 264:0 265:17.219986 266:28.127794 267:104.38279 268:276.64975 269:418.68143 270:714.51642 271:838.76471 272:98.261665 273:0 274:0 275:0 276:0 277:5.0002441 278:9.0257034 279:40.530968 280:111.82166 281:159.51404 282:239.01543 283:211.64751 284:4.474205 285:0 286:0 287:0 288:0 289:6.716084 290:10.238336 291:51.969875 292:134.01651 293:200.3689 294:329.91187 295:251.79138 296:3.4462712 297:0 298:0 299:0 300:0 301:7.9972353 302:11.490206 303:67.082367 304:166.44295 305:283.20023 306:410.97791 307:300.62787 308:5.5931697 309:0 310:0 311:0 312:0 313:9.0322819 314:15.192225 315:66.883667 316:169.50281 317:260.83636 318:405.6275 319:383.95187 320:19.771664 321:0 322:0 323:0 324:0 325:8.0395174 326:14.9239 327:62.037064 328:166.24301 329:249.95422 330:400.91284 331:386.19843 332:30.393238 333:0 334:0 335:0 336:0 337:3.6769605 338:5.7824574 339:28.600851 340:80.710304 341:142.52948 342:197.29352 343:140.53249 344:4.8839102 345:0 346:0 347:0 348:0 349:17.228827 350:27.409683 351:102.49885 352:275.57114 353:452.26917 354:747.29114 355:840.10638 356:101.65285 357:0 358:0 359:0 360:0 361:5.0090833 362:8.3075886 363:38.647011 364:110.74303 365:193.10167 366:271.78937 367:212.98987 368:7.8653889 369:0 370:0 371:0 372:0 373:6.7249236 374:9.5202208 375:50.085884 376:132.93796 377:233.95657 378:362.68622 379:253.13338 380:6.8374524 381:0 382:0 383:0 384:0 385:8.0060749 386:10.77209 387:65.198387 388:165.36432 389:316.78824 390:443.75159 391:301.96988 392:8.9843512 393:0 394:0 395:0 396:0 397:9.0411196 398:14.474107 399:64.999687 400:168.42407 401:294.42429 402:438.40131 403:385.29349 404:23.162848 405:0 406:0 407:0 408:0 409:8.048357 410:14.205786 411:60.153114 412:165.16437 413:283.54221 414:433.68735 415:387.54086 416:33.78442 417:0 418:0 419:0 420:0 421:5.8472013 422:8.8062305 423:37.944096 424:93.86026 425:169.7885 426:273.94135 427:270.31064 428:21.238594 429:0 430:0 431:0 432:0 433:19.399069 434:30.433455 435:111.84208 436:288.7211 437:479.5275 438:823.93756 439:969.88531 440:118.0075 441:0 442:0 443:0 444:0 445:7.1793237 446:11.331357 447:47.990242 448:123.89291 449:220.35976 450:348.43591 451:342.76788 452:24.220058 453:0 454:0 455:0 456:0 457:8.8951654 458:12.543995 459:59.429138 460:146.08786 461:261.21487 462:439.33249 463:382.91138 464:23.19211 465:0 466:0 467:0 468:0 469:10.176315 470:13.795865 471:74.541595 472:178.51424 473:344.04623 474:520.39771 475:431.74768 476:25.339016 477:0 478:0 479:0 480:0 481:11.211361 482:17.497875 483:74.342949 484:181.57382 485:321.68213 486:515.04834 487:515.07251 488:39.517498 489:0 490:0 491:0 492:0 493:10.218598 494:17.229557 495:69.496323 496:178.31424 497:310.80002 498:510.33353 499:517.31885 500:50.139088 501:0 502:0 503:0 504:0 505:4.1363921 506:7.4674063 507:30.431866 508:79.554932 509:139.49365 510:240.38139 511:243.4102 512:31.377338 513:0 514:0 515:0 516:0 517:17.688257 518:29.094631 519:104.32983 520:274.41592 521:449.23309 522:790.37817 523:942.98315 524:128.1463 525:0 526:0 527:0 528:0 529:5.468514 530:9.9925356 531:40.478027 532:109.58773 533:190.06575 534:314.87595 535:315.86615 536:34.358814 537:0 538:0 539:0 540:0 541:7.1843553 542:11.205169 543:51.916931 544:131.78271 545:230.92075 546:405.77264 547:356.01022 548:33.330883 549:0 550:0 551:0 552:0 553:8.4655066 554:12.457039 555:67.029427 556:164.20906 557:313.75192 558:486.83798 559:404.84631 560:35.477776 561:0 562:0 563:0 564:0 565:9.5005522 566:16.159056 567:66.830704 568:167.26894 569:291.38785 570:481.48822 571:488.17065 572:49.656269 573:0 574:0 575:0 576:0 577:8.5077877 578:15.890734 579:61.984112 580:164.00912 581:280.50598 582:476.77386 583:490.41751 584:60.277851 585:0 586:0 587:0 
8.04641769536328e-021 8.033077266596741e-022 1.416982231699636e-020 1.317533603961214e-020 7.939659374818681e-021 0:0 1:0.0011462956 2:0.002141793 3:0.006757318 4:0.016621795 5:0.031856332 6:0.045672655 7:0.040604789 8:0.0045251446 9:0 10:0 11:0 12:0 13:13.190901 14:19.1656 15:62.604439 16:136.60216 17:259.92352 18:412.43604 19:367.41934 20:20.877573 21:0 22:0 23:0 24:0 25:5.398952 26:9.9616461 27:33.969223 28:77.689041 29:148.0569 30:252.00056 31:247.85081 32:48.073929 33:0 34:0 35:0 36:0 37:2.0423551 38:6.8988752 39:16.421795 40:63.322384 41:118.2984 42:114.96774 43:74.696854 44:0.8073045 45:0 46:0 47:0 48:0 49:4.2388811 50:10.431469 51:30.484932 52:84.933365 53:171.63388 54:209.55856 55:225.71127 56:37.437256 57:0 58:0 59:0 60:0 61:8.0327015 62:14.495611 63:46.929317 64:109.73183 65:211.25162 66:314.32101 67:262.98038 68:29.901424 69:0 70:0 71:0 72:0 73:5.0990787 74:10.052149 75:33.607178 76:78.762863 77:146.91594 78:210.83046 79:167.44449 80:12.913836 81:0 82:0 83:0 84:0 85:11.594848 86:19.757084 87:67.122871 88:158.46465 89:277.67465 90:461.52966 91:414.17633 92:45.357395 93:0 94:0 95:0 96:0 97:24.784595 98:38.920544 99:129.72047 100:295.05014 101:537.5658 102:873.92023 103:781.55426 104:66.230423 105:0 106:0 107:0 108:0 109:16.992653 110:29.716593 111:101.08533 112:236.13696 113:425.69949 114:713.48444 115:661.98584 116:93.426773 117:0 118:0 119:0 120:0 121:13.636058 122:26.65382 123:83.537918 124:221.77017 125:395.9411 126:576.45203 127:488.83252 128:46.160156 129:0 130:0 131:0 132:0 133:15.832582 134:30.186411 135:97.601013 136:243.38127 137:449.27631 138:671.04193 139:639.84601 140:82.790108 141:0 142:0 143:0 144:0 145:19.6264 146:34.250565 147:114.04536 148:268.17981 149:488.89426 150:775.80627 151:677.11591 152:75.254303 153:0 154:0 155:0 156:0 157:16.69278 158:29.807095 159:100.72326 160:237.21085 161:424.55869 162:672.31519 163:581.57947 164:58.266663 165:0 166:0 167:0 168:0 169:5.7019715 170:10.406172 171:28.215055 172:60.001755 173:126.96629 174:193.65685 175:209.53305 176:31.717512 177:0 178:0 179:0 180:0 181:18.891722 182:29.569639 183:90.812721 184:196.58734 185:386.85773 186:606.04724 187:576.91144 188:52.590557 189:0 190:0 191:0 192:0 193:11.099778 194:20.365677 195:62.177521 196:137.67406 197:274.99124 198:445.61157 199:457.34277 200:79.786934 201:0 202:0 203:0 204:0 205:7.7431808 206:17.30291 207:44.630104 208:123.30736 209:245.23262 210:308.5787 211:284.18918 212:32.52029 213:0 214:0 215:0 216:0 217:9.9397049 218:20.835501 219:58.693253 220:144.91829 221:298.56799 222:403.16876 223:435.20303 224:69.15023 225:0 226:0 227:0 228:0 229:13.733525 230:24.899645 231:75.137627 232:169.71684 233:338.18579 234:507.93259 235:472.47253 236:61.614433 237:0 238:0 239:0 240:0 241:10.799905 242:20.456182 243:61.815487 244:138.748 245:273.85025 246:404.44208 247:376.93665 248:44.626827 249:0 250:0 251:0 252:0 253:2.9490287 254:7.52247 255:22.340229 256:66.250771 257:141.57787 258:126.53736 259:102.10222 260:1.2562082 261:0 262:0 263:0 264:0 265:16.138783 266:26.685934 267:84.937874 268:202.83632 269:401.46918 270:538.92749 271:469.48053 272:22.129259 273:0 274:0 275:0 276:0 277:8.3468342 278:17.481974 279:56.302711 280:143.92311 281:289.60269 282:378.492 283:349.91202 284:49.325607 285:0 286:0 287:0 288:0 289:4.9902368 290:14.419202 291:38.755264 292:129.55641 293:259.84433 294:241.45973 295:176.75826 296:2.0589883 297:0 298:0 299:0 300:0 301:7.1867628 302:17.951794 303:52.81839 304:151.16742 305:313.17969 306:336.04968 307:327.77197 308:38.688938 309:0 310:0 311:0 312:0 313:10.98058 314:22.015942 315:69.262749 316:175.96579 317:352.79745 318:440.81287 319:365.04211 320:31.153105 321:0 322:0 323:0 324:0 325:8.0469608 326:17.572479 327:55.940639 328:144.99715 329:288.46191 330:337.32236 331:269.50583 332:14.165524 333:0 334:0 335:0 336:0 337:4.4389205 338:9.3604193 339:31.464447 340:80.56884 341:161.91782 342:210.59367 343:191.88173 344:25.614092 345:0 346:0 347:0 348:0 349:17.628674 350:28.523886 351:94.062088 352:217.15442 353:421.8089 354:622.98297 355:559.26007 356:46.487148 357:0 358:0 359:0 360:0 361:9.8367271 362:19.319927 363:65.426926 364:158.2412 365:309.94244 366:462.54745 367:439.6918 368:73.683495 369:0 370:0 371:0 372:0 373:6.4801297 374:16.257151 375:47.879467 376:143.87456 377:280.18414 378:325.5152 379:266.53787 380:26.416874 381:0 382:0 383:0 384:0 385:8.6766548 386:19.789743 387:61.942608 388:165.48558 389:333.51941 390:420.10492 391:417.55176 392:63.046829 393:0 394:0 395:0 396:0 397:12.470475 398:23.853889 399:78.386978 400:190.28404 401:373.13715 402:524.86847 403:454.82162 404:55.510994 405:0 406:0 407:0 408:0 409:9.5368528 410:19.410427 411:65.064873 412:159.31512 413:308.80154 414:421.37759 415:359.28525 416:38.523411 417:0 418:0 419:0 420:0 421:8.8419943 422:15.075064 423:46.424671 424:116.47027 425:217.25275 426:327.13693 427:258.39841 428:25.166433 429:0 430:0 431:0 432:0 433:22.031744 434:34.238529 435:109.02237 436:253.05586 437:477.14417 438:739.52716 439:625.77698 440:46.039471 441:0 442:0 443:0 444:0 445:14.2398 446:25.034569 447:80.387161 448:194.14276 449:365.2775 450:579.09143 451:506.20856 452:73.235809 453:0 454:0 455:0 456:0 457:10.883203 458:21.971792 459:62.839714 460:179.77599 461:335.51901 462:442.05887 463:333.05505 464:25.969215 465:0 466:0 467:0 468:0 469:13.079727 470:25.504389 471:76.90287 472:201.38696 473:388.8544 474:536.64844 475:484.06863 476:62.599133 477:0 478:0 479:0 480:0 481:16.873549 482:29.568533 483:93.347221 484:226.18546 485:428.47214 486:641.41144 487:521.33856 488:55.063324 489:0 490:0 491:0 492:0 493:13.939923 494:25.12508 495:80.025131 496:195.21654 497:364.13672 498:537.92157 499:425.80197 500:38.075729 501:0 502:0 503:0 504:0 505:4.4761043 506:8.88414 507:28.449665 508:69.285454 509:130.69078 510:194.65997 511:170.0096 512:20.899677 513:0 514:0 515:0 516:0 517:17.665857 518:28.0476 519:91.047302 520:205.87105 521:390.58237 522:607.05066 523:537.38867 524:41.772739 525:0 526:0 527:0 528:0 529:9.873909 530:18.843645 531:62.412132 532:146.95778 533:278.71591 534:446.61517 535:417.8197 536:68.969086 537:0 538:0 539:0 540:0 541:6.517313 542:15.780874 543:44.864731 544:132.59126 545:248.95776 546:309.58243 547:244.66614 548:21.702457 549:0 550:0 551:0 552:0 553:8.7138386 554:19.313463 555:58.927818 556:154.20226 557:302.29291 558:404.1727 559:395.67966 560:58.332409 561:0 562:0 563:0 564:0 565:12.507659 566:23.377609 567:75.3722 568:179.00064 569:341.91055 570:508.93674 571:432.94989 572:50.79657 573:0 574:0 575:0 576:0 577:9.5740366 578:18.934149 579:62.050137 580:148.03174 581:277.57523 582:405.44519 583:337.4136 584:33.808998 585:0 586:0 587:0 
6.191255233840042e-021 2.403758099475258e-021 1.419768935375605e-021 7.717973671281929e-022 1.112643379135173e-020 0:0 1:0.0015083118 2:0.0027451229 3:0.011372968 4:0.026637191 5:0.04322825 6:0.046665568 7:0.017162543 8:0 9:0 10:0 11:0 12:0 13:17.88512 14:33.923779 15:131.1335 16:294.23822 17:512.6925 18:694.14069 19:347.52692 20:0 21:0 22:0 23:0 24:0 25:4.7606926 26:6.745544 27:29.070385 28:72.605103 29:128.49895 30:109.6243 31:23.79847 32:0 33:0 34:0 35:0 36:0 37:5.8373294 38:10.55101 39:48.043064 40:128.18709 41:175.32291 42:114.59363 43:10.506478 44:0 45:0 46:0 47:0 48:0 49:5.9881072 50:8.5123158 51:39.856255 52:101.58315 53:149.81461 54:121.3831 55:13.205981 56:0 57:0 58:0 59:0 60:0 61:7.4763575 62:14.805934 63:63.444233 64:146.01201 65:246.83441 66:229.35245 67:52.462334 68:0 69:0 70:0 71:0 72:0 73:8.0561676 74:16.468262 75:65.480995 76:140.4402 77:219.94533 78:278.02274 79:121.54178 80:0 81:0 82:0 83:0 84:0 85:18.230799 86:33.628983 87:131.11552 88:319.63928 89:524.39191 90:665.85028 91:335.14737 92:0 93:0 94:0 95:0 96:0 97:36.114414 98:67.550041 99:262.23755 100:613.85162 101:1037.0414 102:1359.9434 103:682.65894 104:0 105:0 106:0 107:0 108:0 109:22.989986 110:40.37178 111:160.17455 112:392.21759 113:652.84723 114:775.42767 115:358.92923 116:0 117:0 118:0 119:0 120:0 121:24.066626 122:44.177246 123:179.14713 124:447.79935 125:699.67047 126:780.39539 127:345.63727 128:0 129:0 130:0 131:0 132:0 133:24.2174 134:42.13855 135:170.96028 136:421.19537 137:674.16241 138:787.1853 139:348.3363 140:0 141:0 142:0 143:0 144:0 145:25.705654 146:48.432182 147:194.54836 148:465.62433 149:771.18237 150:895.15387 151:387.59302 152:0 153:0 154:0 155:0 156:0 157:26.28546 158:50.094486 159:196.5851 160:460.05267 161:744.29297 162:943.82434 163:456.67239 164:0 165:0 166:0 167:0 168:0 169:2.8206244 170:6.7064447 171:34.407623 172:61.570293 173:78.342529 174:106.67625 175:35.239494 176:0 177:0 178:0 179:0 180:0 181:20.704235 182:40.627499 183:165.52966 184:355.78232 185:590.992 186:800.76978 187:382.75015 188:0 189:0 190:0 191:0 192:0 193:7.5798082 194:13.449245 195:63.466587 196:134.14871 197:206.79794 198:216.25316 199:59.020729 200:0 201:0 202:0 203:0 204:0 205:8.6564436 206:17.254713 207:82.439323 208:189.73076 209:253.62202 210:221.22299 211:45.728809 212:0 213:0 214:0 215:0 216:0 217:8.8072224 218:15.216018 219:74.252502 220:163.12685 221:228.1132 222:228.01268 223:48.42828 224:0 225:0 226:0 227:0 228:0 229:10.295472 230:21.509636 231:97.840492 232:207.55563 233:325.13367 234:335.98157 235:87.684624 236:0 237:0 238:0 239:0 240:0 241:10.87528 242:23.171963 243:99.877289 244:201.98398 245:298.24408 246:384.65167 247:156.76431 248:0 249:0 250:0 251:0 252:0 253:6.2316799 254:10.874783 255:40.457836 256:101.27429 257:175.6709 258:128.08568 259:7.3714933 260:0 261:0 262:0 263:0 264:0 265:24.11529 266:44.795837 267:171.57996 268:395.48651 269:688.32086 270:822.18146 271:354.88196 272:0 273:0 274:0 275:0 276:0 277:10.990865 278:17.617579 279:69.516861 280:173.85262 281:304.12622 282:237.66333 283:31.152798 284:0 285:0 286:0 287:0 288:0 289:12.0675 290:21.423048 291:88.489586 292:229.43472 293:350.94995 294:242.63307 295:17.860769 296:0 297:0 298:0 299:0 300:0 301:12.218276 302:19.384354 303:80.30275 304:202.83075 305:325.44122 306:249.42223 307:20.560295 308:0 309:0 310:0 311:0 312:0 313:13.70653 314:25.677973 315:103.89078 316:247.25958 317:422.46118 318:357.39099 319:59.816685 320:0 321:0 322:0 323:0 324:0 325:14.286337 326:27.340303 327:105.92751 328:241.68784 329:395.57205 330:406.06131 331:128.89635 332:0 333:0 334:0 335:0 336:0 337:6.1431808 338:9.6149187 339:39.875214 340:92.281479 341:163.76205 342:127.08797 343:14.493055 344:0 345:0 346:0 347:0 348:0 349:24.026789 350:43.535973 351:170.99731 352:386.49365 353:676.41071 354:821.18286 355:362.00327 356:0 357:0 358:0 359:0 360:0 361:10.902365 362:16.357719 363:68.934227 364:164.86003 365:292.21719 366:236.6657 367:38.274345 368:0 369:0 370:0 371:0 372:0 373:11.979 374:20.163185 375:87.906929 376:220.4418 377:339.04105 378:241.63512 379:24.982374 380:0 381:0 382:0 383:0 384:0 385:12.12978 386:18.124485 387:79.720078 388:193.83786 389:313.53241 390:248.42482 391:27.681829 392:0 393:0 394:0 395:0 396:0 397:13.618027 398:24.418104 399:103.30812 400:238.26685 401:410.55273 402:356.39377 403:66.93824 404:0 405:0 406:0 407:0 408:0 409:14.197838 410:26.080437 411:105.34484 412:232.69499 413:383.66302 414:405.06381 415:136.01791 416:0 417:0 418:0 419:0 420:0 421:7.1053782 422:13.834942 423:63.312477 424:144.1116 425:238.53979 426:227.27579 427:54.492859 428:0 429:0 430:0 431:0 432:0 433:24.988987 434:47.755997 435:194.43448 436:438.32358 437:751.19025 438:921.37097 439:402.00317 440:0 441:0 442:0 443:0 444:0 445:11.86456 446:20.577745 447:92.371468 448:216.69008 449:366.99582 450:336.85345 451:78.274071 452:0 453:0 454:0 455:0 456:0 457:12.941195 458:24.383211 459:111.3442 460:272.27216 461:413.81995 462:341.82275 463:64.982178 464:0 465:0 466:0 467:0 468:0 469:13.091976 470:22.344515 471:103.15736 472:245.66815 473:388.31067 474:348.61249 475:67.681671 476:0 477:0 478:0 479:0 480:0 481:14.580229 482:28.638134 483:126.74536 484:290.09714 485:485.33133 486:456.5816 487:106.93797 488:0 489:0 490:0 491:0 492:0 493:15.160035 494:30.300467 495:128.78217 496:284.52554 497:458.44186 498:505.25143 499:176.01788 500:0 501:0 502:0 503:0 504:0 505:9.4721079 506:16.346792 507:67.859848 508:164.19041 509:252.40237 510:292.14227 511:122.29809 512:0 513:0 514:0 515:0 516:0 517:27.355715 518:50.267849 519:198.98195 520:458.40207 521:765.05145 522:986.23523 523:469.8089 524:0 525:0 526:0 527:0 528:0 529:14.231293 530:23.089594 531:96.918854 532:236.76855 533:380.85785 534:401.71902 535:146.07947 536:0 537:0 538:0 539:0 540:0 541:15.307928 542:26.89506 543:115.89144 544:292.35059 545:427.6813 546:406.68851 547:132.78752 548:0 549:0 550:0 551:0 552:0 553:15.458707 554:24.856365 555:107.70468 556:265.74673 557:402.17313 558:413.47821 559:135.48703 560:0 561:0 562:0 563:0 564:0 565:16.946959 566:31.149982 567:131.29272 568:310.17581 569:499.19296 570:521.44751 571:174.74356 572:0 573:0 574:0 575:0 576:0 577:17.526768 578:32.812309 579:133.32942 580:304.60382 581:472.30365 582:570.11749 583:243.82298 584:0 585:0 586:0 587:0 
0 0 3.276367193033738e-020 2.583938376932068e-021 1.75464876660679e-021 0:0 1:0.0015384173 2:0.0024735127 3:0.010738663 4:0.022925122 5:0.040571682 6:0.047237519 7:0.023829373 8:0 9:0 10:0 11:0 12:0 13:18.862764 14:31.643698 15:123.92771 16:253.38808 17:447.04037 18:602.79095 19:369.00745 20:0 21:0 22:0 23:0 24:0 25:5.5834203 26:9.1482372 27:38.757549 28:88.445518 29:142.4631 30:113.67262 31:93.209587 32:0 33:0 34:0 35:0 36:0 37:3.2673147 38:3.227493 39:21.904507 40:50.846153 41:84.390556 42:82.778336 43:29.173914 44:0 45:0 46:0 47:0 48:0 49:6.6017532 50:10.632844 51:52.688961 52:112.9093 53:200.19205 54:230.32149 55:60.747524 56:0 57:0 58:0 59:0 60:0 61:8.362237 62:14.794371 63:68.634155 64:145.46132 65:274.90497 66:313.55212 67:109.21295 68:0 69:0 70:0 71:0 72:0 73:8.3263578 74:12.559541 75:50.113953 76:109.00736 77:196.10994 78:223.0011 79:128.70778 80:0 81:0 82:0 83:0 84:0 85:17.955807 86:31.201487 87:125.53873 88:272.71988 89:460.77463 90:625.60345 91:388.35745 92:0 93:0 94:0 95:0 96:0 97:36.817032 98:62.842724 99:249.4559 100:526.0849 101:907.77502 102:1228.3475 103:757.34174 104:0 105:0 106:0 107:0 108:0 109:23.53768 110:40.347244 111:164.28558 112:361.14218 113:603.19818 114:739.22791 115:481.54349 116:0 117:0 118:0 119:0 120:0 121:21.221581 122:34.426502 123:147.43253 124:323.54272 125:545.125 126:708.33344 127:417.50739 128:0 129:0 130:0 131:0 132:0 133:24.556019 134:41.83186 135:178.21715 136:385.6062 137:660.9267 138:855.8761 139:449.08105 140:0 141:0 142:0 143:0 144:0 145:26.316502 146:45.993385 147:194.16211 148:418.15842 149:735.63995 150:939.10663 151:497.54681 152:0 153:0 154:0 155:0 156:0 157:26.280626 158:43.758556 159:175.64203 160:381.70416 161:656.84485 162:848.55566 163:517.04163 164:0 165:0 166:0 167:0 168:0 169:4.911087 170:6.7358313 171:36.639343 172:68.901001 173:110.75179 174:104.00616 175:69.376747 176:0 177:0 178:0 179:0 180:0 181:23.772308 182:38.377056 183:160.55626 184:322.26572 185:557.75189 186:706.75244 187:438.36072 188:0 189:0 190:0 191:0 192:0 193:10.492967 194:15.881592 195:75.386124 196:157.32359 197:253.17506 198:217.632 199:162.56247 200:0 201:0 202:0 203:0 204:0 205:8.1768637 206:9.9608498 207:58.53307 208:119.72421 209:195.10201 210:186.73743 211:98.526894 212:0 213:0 214:0 215:0 216:0 217:11.511302 218:17.366201 219:89.317604 220:181.78732 221:310.90384 222:334.28088 223:130.10051 224:0 225:0 226:0 227:0 228:0 229:13.271784 230:21.527731 231:105.2627 232:214.33936 233:385.61621 234:417.5112 235:178.56595 236:0 237:0 238:0 239:0 240:0 241:13.235906 242:19.292898 243:86.742554 244:177.88542 245:306.82147 246:326.96054 247:198.06096 248:0 249:0 250:0 251:0 252:0 253:3.8849642 254:5.7225709 255:23.214375 256:52.836781 257:86.605453 258:81.9571 259:27.698595 260:0 261:0 262:0 263:0 264:0 265:22.746189 266:37.363796 267:147.13135 268:306.20135 269:533.60565 270:684.70251 271:396.68268 272:0 273:0 274:0 275:0 276:0 277:9.4668446 278:14.868332 279:61.961201 280:141.25922 281:229.02858 282:195.58257 283:120.8844 284:0 285:0 286:0 287:0 288:0 289:7.1507406 290:8.9475918 291:45.108147 292:103.65997 293:170.95537 294:164.68837 295:56.848778 296:0 297:0 298:0 299:0 300:0 301:10.485179 302:16.352942 303:75.892677 304:165.72316 305:286.75745 306:312.2316 307:88.422447 308:0 309:0 310:0 311:0 312:0 313:12.24566 314:20.514467 315:91.837776 316:198.27516 317:361.46997 318:395.46198 319:136.88776 320:0 321:0 322:0 323:0 324:0 325:12.209784 326:18.279636 327:73.317619 328:161.82124 329:282.67477 330:304.91068 331:156.38284 332:0 333:0 334:0 335:0 336:0 337:7.419487 338:10.593343 339:51.017838 340:114.2809 341:237.22447 342:226.82155 343:49.012287 344:0 345:0 346:0 347:0 348:0 349:26.280712 350:42.23457 351:174.93486 352:367.64572 353:684.22479 354:829.56689 355:417.99619 356:0 357:0 358:0 359:0 360:0 361:13.001369 362:19.739105 363:89.764633 364:202.70323 365:379.64651 366:340.44714 367:142.19778 368:0 369:0 370:0 371:0 372:0 373:10.685264 374:13.818359 375:72.911606 376:165.10402 377:321.57422 378:309.55286 379:78.162292 380:0 381:0 382:0 383:0 384:0 385:14.019704 386:21.223707 387:103.69607 388:227.16711 389:437.37604 390:457.09641 391:109.73589 392:0 393:0 394:0 395:0 396:0 397:15.780182 398:25.385254 399:119.64126 400:259.71915 401:512.08771 402:540.32623 403:158.20116 404:0 405:0 406:0 407:0 408:0 409:15.744305 410:23.15041 411:101.12102 412:223.26514 413:433.29401 414:449.77545 415:177.6963 416:0 417:0 418:0 419:0 420:0 421:9.1937513 422:15.285711 423:63.25655 424:134.82437 425:239.74414 426:289.24463 427:113.06193 428:0 429:0 430:0 431:0 432:0 433:28.054979 434:46.926937 435:187.17346 436:388.189 437:686.74463 438:891.98981 439:482.04596 440:0 441:0 442:0 443:0 444:0 445:14.775634 446:24.431479 447:102.00336 448:223.2467 449:382.16653 450:402.87079 451:206.24768 452:0 453:0 454:0 455:0 456:0 457:12.459524 458:18.510735 459:85.150238 460:185.64757 461:324.09406 462:371.97662 463:142.21198 464:0 465:0 466:0 467:0 468:0 469:15.793965 470:25.91609 471:115.93476 472:247.71059 473:439.89594 474:519.51965 475:173.78566 476:0 477:0 478:0 479:0 480:0 481:17.554447 482:30.077608 483:131.87994 484:280.26245 485:514.60834 486:602.74945 487:222.25087 488:0 489:0 490:0 491:0 492:0 493:17.51857 494:27.842779 495:113.3597 496:243.80861 497:435.81302 498:512.19891 499:241.74599 500:0 501:0 502:0 503:0 504:0 505:7.6387553 506:12.46724 507:56.360031 508:116.49482 509:210.00018 510:238.48506 511:142.55244 512:0 513:0 514:0 515:0 516:0 517:26.499979 518:44.108463 519:180.27698 520:369.8598 521:657.00061 522:841.23077 523:511.53717 524:0 525:0 526:0 527:0 528:0 529:13.220635 530:21.613005 531:95.106888 532:204.91742 533:352.42273 534:352.11063 535:235.73837 536:0 537:0 538:0 539:0 540:0 541:10.904533 542:15.692256 543:78.253799 544:167.31808 545:294.34985 546:321.21619 547:171.70265 548:0 549:0 550:0 551:0 552:0 553:14.238972 554:23.097612 555:109.03827 556:229.38092 557:410.15152 558:468.75931 559:203.27626 560:0 561:0 562:0 563:0 564:0 565:15.999451 566:27.259142 567:124.98344 568:261.93314 569:484.86414 570:551.99023 571:251.74156 572:0 573:0 574:0 575:0 576:0 577:15.96357 578:25.024309 579:106.46326 580:225.47925 581:406.06973 582:461.43945 583:271.23672 584:0 585:0 586:0 587:0 
2.11799033496714e-021 0 0 1.630790973144119e-023 0 0:0 1:0.00090493727 2:0.0017495538 3:0.0069980179 4:0.016047267 5:0.02922857 6:0.048804842 7:0.043403115 8:0.0021714678 9:0 10:0 11:0 12:0 13:14.306621 14:28.636873 15:119.74922 16:269.20856 17:475.10709 18:836.21484 19:886.10327 20:54.456551 21:0 22:0 23:0 24:0 25:3.2098999 26:6.5285306 27:17.9345 28:42.037003 29:80.804863 30:121.4668 31:69.445824 32:0.24929488 33:0 34:0 35:0 36:0 37:1.8994242 38:1.2315314 39:11.016443 40:21.441816 41:43.454979 42:56.208324 43:30.572447 44:0.033953704 45:0 46:0 47:0 48:0 49:1.1543272 50:1.7242156 51:8.7085648 52:26.426298 53:49.725094 54:75.355873 55:32.339485 56:0.24495476 57:0 58:0 59:0 60:0 61:5.5055966 62:11.59474 63:38.540211 64:92.328636 65:178.92743 66:282.29257 67:170.87033 68:3.1692476 69:0 70:0 71:0 72:0 73:3.926394 74:8.2884884 75:36.068604 76:80.597328 77:141.05214 78:246.5808 79:249.77644 80:13.851422 81:0 82:0 83:0 84:0 85:14.812342 86:28.089199 87:118.55566 88:276.42062 89:490.41571 90:860.99872 91:926.86353 92:54.47316 93:0 94:0 95:0 96:0 97:29.118057 98:56.724312 99:238.29793 100:545.61401 101:965.4942 102:1697.1666 103:1812.9303 104:108.92751 105:0 106:0 107:0 108:0 109:18.021341 110:34.615971 111:136.48318 112:318.44156 113:571.19196 114:982.41595 115:996.26794 116:54.72028 117:0 118:0 119:0 120:0 121:16.710861 122:29.318977 123:129.56497 124:297.84665 125:533.84247 126:917.1582 127:957.39319 128:54.504986 129:0 130:0 131:0 132:0 133:15.965767 134:29.811663 135:127.25724 136:302.83105 137:540.11163 138:936.30444 139:959.16205 140:54.715927 141:0 142:0 143:0 144:0 145:20.317038 146:39.682182 147:157.08878 148:368.73318 149:669.31451 150:1143.2432 151:1097.696 152:57.640194 153:0 154:0 155:0 156:0 157:18.737833 158:36.375931 159:154.61731 160:357.00211 161:631.43878 162:1107.5288 163:1176.5929 164:68.322441 165:0 166:0 167:0 168:0 169:2.4479916 170:5.0586953 171:15.085223 172:30.870329 173:57.829659 174:95.349442 175:46.650333 176:0.24949761 177:0 178:0 179:0 180:0 181:16.75371 182:33.693813 183:134.82739 184:300.0632 185:532.90814 186:931.51746 187:932.71423 188:54.703873 189:0 190:0 191:0 192:0 193:5.6569858 194:11.585475 195:33.012691 196:72.891289 197:138.60547 198:216.76755 199:116.05239 200:0.49662095 201:0 202:0 203:0 204:0 205:4.3465104 206:6.2884774 207:26.094646 208:52.296097 209:101.25557 210:151.5092 211:77.179451 212:0.28127983 213:0 214:0 215:0 216:0 217:3.601414 218:6.7811608 219:23.786777 220:57.280579 221:107.52568 222:170.65669 223:78.946533 224:0.49228126 225:0 226:0 227:0 228:0 229:7.9526839 230:16.65168 231:53.618397 232:123.18285 233:236.72806 234:377.59415 235:217.47797 236:3.4165735 237:0 238:0 239:0 240:0 241:6.3734808 242:13.345431 243:51.146851 244:111.45165 245:198.85283 246:341.88071 247:296.38235 248:14.098737 249:0 250:0 251:0 252:0 253:1.1891875 254:1.6542817 255:6.6914425 256:11.075175 257:39.001049 258:39.016457 259:13.471499 260:0.034130346 261:0 262:0 263:0 264:0 265:15.494905 266:30.289402 267:126.43361 268:280.26807 269:514.08026 270:875.18439 271:899.53113 272:54.488556 273:0 274:0 275:0 276:0 277:4.3981819 278:8.1810608 279:24.61891 280:53.096134 281:119.77698 282:160.43483 283:82.874184 284:0.28125376 285:0 286:0 287:0 288:0 289:3.0877061 290:2.8840628 291:17.700884 292:32.500923 293:82.426834 294:95.176254 295:44.000427 296:0.065912664 297:0 298:0 299:0 300:0 301:2.3426094 302:3.3767464 303:15.392999 304:37.485474 305:88.697258 306:114.32369 307:45.768021 308:0.27691367 309:0 310:0 311:0 312:0 313:6.6938787 314:13.247271 315:45.224667 316:103.38785 317:217.89963 318:321.26117 319:184.29942 320:3.2012026 321:0 322:0 323:0 324:0 325:5.114676 326:9.94102 327:42.753094 328:91.656502 329:180.02406 330:285.54779 331:263.20404 332:13.883368 333:0 334:0 335:0 336:0 337:1.2579412 338:2.4143879 339:9.4289303 340:18.612085 341:48.259575 342:55.872658 343:26.393509 344:0.24323224 345:0 346:0 347:0 348:0 349:15.563659 350:31.049511 351:129.17111 352:287.80505 353:523.33887 354:892.04083 355:912.45636 356:54.697598 357:0 358:0 359:0 360:0 361:4.4669361 362:8.9411688 363:27.356421 364:60.633022 365:129.03552 366:177.2912 367:95.796005 368:0.49035603 369:0 370:0 371:0 372:0 373:3.1564608 374:3.6441696 375:20.438362 376:40.037865 377:91.685562 378:112.03307 379:56.922943 380:0.27501452 381:0 382:0 383:0 384:0 385:2.4113643 386:4.1368532 387:18.130486 388:45.022354 389:97.95578 390:131.18034 391:58.690296 392:0.4860155 393:0 394:0 395:0 396:0 397:6.7626343 398:14.007379 399:47.962143 400:110.92461 401:227.15823 402:338.11777 403:197.22137 404:3.4103057 405:0 406:0 407:0 408:0 409:5.1834311 410:10.701127 411:45.490547 412:99.193497 413:189.28284 414:302.40448 415:276.1254 416:14.092471 417:0 418:0 419:0 420:0 421:6.1069608 422:12.262598 423:47.73621 424:119.0438 425:196.89259 426:329.70239 427:177.91011 428:3.0889525 429:0 430:0 431:0 432:0 433:20.41268 434:40.897717 435:167.47838 436:388.237 437:671.97186 438:1165.8718 439:1063.9723 440:57.543293 441:0 442:0 443:0 444:0 445:9.3159561 446:18.789379 447:65.66362 448:161.06488 449:277.66888 450:451.12125 451:247.3131 452:3.3360758 453:0 454:0 455:0 456:0 457:8.0054808 458:13.492384 459:58.745667 460:140.46977 461:240.3188 462:385.86227 463:208.43985 464:3.1207311 465:0 466:0 467:0 468:0 469:7.2603836 470:13.985064 471:56.437778 472:145.45427 473:246.5891 474:405.00977 475:210.2072 476:3.3317332 477:0 478:0 479:0 480:0 481:11.611656 482:23.855585 483:86.269402 484:211.35655 485:375.79126 486:611.94659 487:348.73758 488:6.2560291 489:0 490:0 491:0 492:0 493:10.032452 494:20.54933 495:83.797836 496:199.62535 497:337.91617 498:576.23535 499:427.64362 500:16.938181 501:0 502:0 503:0 504:0 505:4.1878357 506:8.5252171 507:34.520096 508:76.017746 509:136.67346 510:237.1833 511:247.81897 512:13.916452 513:0 514:0 515:0 516:0 517:18.493557 518:37.160343 519:154.26239 520:345.21069 521:611.75238 522:1073.3505 523:1133.8749 524:68.370872 525:0 526:0 527:0 528:0 529:7.3968296 530:15.051997 531:52.447643 532:118.0387 533:217.44926 534:358.60071 535:317.21948 536:14.163565 537:0 538:0 539:0 540:0 541:6.0863552 542:9.7549992 543:45.529552 544:97.443596 545:180.09911 546:293.34241 547:278.34744 548:13.948221 549:0 550:0 551:0 552:0 553:5.341258 554:10.247682 555:43.221661 556:102.42806 557:186.36983 558:312.4895 559:280.11353 560:14.159225 561:0 562:0 563:0 564:0 565:9.6925278 566:20.118208 567:73.053337 568:168.33049 569:315.57184 570:519.42749 571:418.64536 572:17.083508 573:0 574:0 575:0 576:0 577:8.1133251 578:16.811956 579:70.581764 580:156.59921 581:277.69662 582:483.71381 583:497.54999 584:27.765686 585:0 586:0 587:0 
0 4.931104756886616e-021 1.286468639012173e-020 1.703658636078548e-021 6.084602426055527e-021 0:0 1:0.0012369641 2:0.0015386632 3:0.0066673467 4:0.016411554 5:0.028298145 6:0.046278872 7:0.045916364 8:0.0029863722 9:0 10:0 11:0 12:0 13:9.1458979 14:12.767357 15:48.738708 16:109.29304 17:186.70195 18:321.90256 19:439.92831 20:51.128593 21:0 22:0 23:0 24:0 25:1.5274059 26:1.3714713 27:5.3721447 28:16.042023 29:30.954683 30:54.367695 31:49.058468 32:1.3693411 33:0 34:0 35:0 36:0 37:4.3113561 38:4.817975 39:25.686829 40:64.032532 41:111.33468 42:177.97021 43:130.76294 44:2.8975258 45:0 46:0 47:0 48:0 49:12.856189 50:15.549591 51:74.642662 52:188.80421 53:316.61093 54:509.28998 55:423.61935 56:9.2802839 57:0 58:0 59:0 60:0 61:6.6019773 62:8.7259359 63:35.262619 64:91.020485 65:163.32411 66:255.05759 67:228.70662 68:10.217149 69:0 70:0 71:0 72:0 73:6.5602646 74:7.7715158 75:31.313728 76:74.84861 77:129.1433 78:215.52644 79:250.03842 80:24.114553 81:0 82:0 83:0 84:0 85:8.3554649 86:11.356545 87:46.620934 88:118.71709 89:184.22069 90:369.57474 91:518.21246 92:57.214401 93:0 94:0 95:0 96:0 97:17.500122 98:24.122356 99:95.35289 100:227.9938 101:370.89511 102:691.42981 103:958.09222 104:108.34005 105:0 106:0 107:0 108:0 109:9.8816338 110:12.726475 111:51.986366 112:134.7428 113:215.14754 114:423.89474 115:567.22382 116:58.58078 117:0 118:0 119:0 120:0 121:12.665582 122:16.172979 123:72.301071 124:182.73344 125:295.52808 126:547.49713 127:648.92847 128:60.108952 129:0 130:0 131:0 132:0 133:21.210415 134:26.904589 135:121.25684 136:307.50513 137:500.80396 138:878.81732 139:941.78485 140:66.491707 141:0 142:0 143:0 144:0 145:14.956203 146:20.080944 147:81.876839 148:209.72121 149:347.5173 150:624.58502 151:746.87341 152:67.428574 153:0 154:0 155:0 156:0 157:14.914494 158:19.126522 159:77.927933 160:193.54926 161:313.33636 162:585.05371 163:768.20337 164:81.326012 165:0 166:0 167:0 168:0 169:1.1251621 170:1.1947262 171:6.5519528 172:13.507049 173:24.226322 174:49.48912 175:51.256569 176:1.6771743 177:0 178:0 179:0 180:0 181:10.269823 182:13.960545 183:55.283962 184:122.78364 185:210.90031 186:371.34607 187:491.13876 188:52.802792 189:0 190:0 191:0 192:0 193:2.6513319 194:2.5646584 195:11.917431 196:29.532673 197:55.152714 198:103.81052 199:100.26915 200:3.0435307 201:0 202:0 203:0 204:0 205:5.4352808 206:6.0111623 207:32.232124 208:77.523132 209:135.53297 210:227.41315 211:181.9738 212:4.5717149 213:0 214:0 215:0 216:0 217:13.980114 218:16.742775 219:81.187943 220:202.29514 221:340.80936 222:558.73309 223:474.83066 224:10.954472 225:0 226:0 227:0 228:0 229:7.7259016 230:9.9191246 231:41.807892 232:104.51119 233:187.52235 234:304.50101 235:279.91809 236:11.89134 237:0 238:0 239:0 240:0 241:7.6841888 242:8.9647055 243:37.859016 244:88.339211 245:153.34132 246:264.96887 247:301.24863 248:25.788746 249:0 250:0 251:0 252:0 253:5.8444858 254:5.380466 255:28.202295 256:67.778252 257:124.88303 258:176.90816 259:114.82082 260:1.6626503 261:0 262:0 263:0 264:0 265:14.989149 266:18.146284 267:76.934364 268:177.05508 269:311.5574 270:498.76492 271:554.70331 272:52.788269 273:0 274:0 275:0 276:0 277:7.3706551 278:6.7503991 279:33.567768 280:83.803993 281:155.80933 282:231.22888 283:163.83365 284:3.0290058 285:0 286:0 287:0 288:0 289:10.154604 290:10.196902 291:53.882462 292:131.79448 293:236.18954 294:354.83157 295:245.53836 296:4.5571885 297:0 298:0 299:0 300:0 301:18.69944 302:20.928516 303:102.83829 304:256.56628 305:441.4657 306:686.15222 307:538.39471 308:10.939948 309:0 310:0 311:0 312:0 313:12.445224 314:14.104867 315:63.458256 316:158.78258 317:288.17911 318:431.91931 319:343.48245 320:11.876816 321:0 322:0 323:0 324:0 325:12.403512 326:13.150445 327:59.509342 328:142.61066 329:253.99821 330:392.3873 331:364.8132 332:25.774223 333:0 334:0 335:0 336:0 337:13.984862 338:18.622076 339:77.807495 340:182.33194 341:329.63657 342:481.73444 343:358.12164 344:7.1263509 345:0 346:0 347:0 348:0 349:23.12952 350:31.387896 351:126.53957 352:291.60846 353:516.31073 354:803.59131 355:798.00391 356:58.251965 357:0 358:0 359:0 360:0 361:15.511032 362:19.992006 363:83.173058 364:198.3576 365:360.56332 366:536.05634 367:407.13336 368:8.4927092 369:0 370:0 371:0 372:0 373:18.294979 374:23.438515 375:103.48778 376:246.34804 377:440.94348 378:659.65833 379:488.83795 380:10.020892 381:0 382:0 383:0 384:0 385:26.839819 386:34.17012 387:152.44354 388:371.12027 389:646.2196 390:990.97858 391:781.69421 392:16.403654 393:0 394:0 395:0 396:0 397:20.585604 398:27.346472 399:113.06346 400:273.33621 401:492.93317 402:736.74677 403:586.78229 404:17.340515 405:0 406:0 407:0 408:0 409:20.54389 410:26.392061 411:109.11462 412:257.16412 413:458.7518 414:697.21484 415:608.11237 416:31.237932 417:0 418:0 419:0 420:0 421:6.113368 422:7.1677799 423:31.493187 424:88.270813 425:150.12903 426:235.3399 427:211.45232 428:9.6431007 429:0 430:0 431:0 432:0 433:15.258032 434:19.933601 435:80.225227 436:197.54744 437:336.80344 438:557.19708 439:651.33459 440:60.76873 441:0 442:0 443:0 444:0 445:7.6395373 446:8.537714 447:36.858688 448:104.29659 449:181.05576 450:289.66138 451:260.46555 452:11.009458 453:0 454:0 455:0 456:0 457:10.423487 458:11.984216 459:57.173351 460:152.28703 461:261.43594 462:413.26407 463:342.16992 464:12.537644 465:0 466:0 467:0 468:0 469:18.968317 470:22.71583 471:106.1292 472:277.05893 473:466.71176 474:744.58374 475:635.02649 476:18.920399 477:0 478:0 479:0 480:0 481:12.714108 482:15.892179 483:66.749146 484:179.27504 485:313.42535 486:490.35178 487:440.11435 488:19.857264 489:0 490:0 491:0 492:0 493:12.672395 494:14.937761 495:62.800259 496:163.10313 497:279.24432 498:450.82025 499:461.44452 500:33.754673 501:0 502:0 503:0 504:0 505:5.5797505 506:7.2822585 507:30.340788 508:73.435532 509:124.97423 510:221.07124 511:268.25171 512:21.683769 513:0 514:0 515:0 516:0 517:14.724414 518:20.048075 519:79.072823 520:182.71231 521:311.64789 522:542.92773 523:708.13495 524:72.809395 525:0 526:0 527:0 528:0 529:7.1059184 530:8.6521893 531:35.706257 532:89.461212 533:155.9003 534:275.39258 535:317.26495 536:23.050114 537:0 538:0 539:0 540:0 541:9.8898687 542:12.098694 543:56.020935 544:137.45172 545:236.28053 546:398.99548 547:398.96982 548:24.5783 549:0 550:0 551:0 552:0 553:18.434702 554:22.830305 555:104.97681 556:262.22369 557:441.5564 558:730.31458 559:691.82611 560:30.961065 561:0 562:0 563:0 564:0 565:12.18049 566:16.006657 567:65.596695 568:164.43973 569:288.26993 570:476.08292 571:496.91364 572:31.89794 573:0 574:0 575:0 576:0 577:12.138779 578:15.052236 579:61.647831 580:148.2677 581:254.0889 582:436.55142 583:518.2442 584:45.795326 585:0 586:0 587:0 
4.158765703114069e-021 0 2.747011086472859e-023 5.428329946200559e-022 8.024532117722037e-021 0:0 1:0.00093505532 2:0.0017193628 3:0.0067567066 4:0.016077373 5:0.03158199 6:0.046182189 7:0.041898128 8:0.0041624643 9:0 10:0 11:0 12:0 13:10.65249 14:14.413518 15:69.954346 16:150.85518 17:290.96121 18:440.5029 19:372.25192 20:27.898577 21:0 22:0 23:0 24:0 25:1.779356 26:9.1315794 27:23.872841 28:86.218559 29:179.08267 30:185.29305 31:130.23093 32:4.7401457 33:0 34:0 35:0 36:0 37:0.50100672 38:0.5381521 39:3.1126101 40:8.2114868 41:16.717154 42:24.092531 43:17.451485 44:1.3520604 45:0 46:0 47:0 48:0 49:2.217875 50:5.432559 51:20.672636 52:52.079563 53:112.13768 54:178.90808 55:171.8409 56:14.601032 57:0 58:0 59:0 60:0 61:12.311355 62:22.434046 63:82.254822 64:182.96904 65:343.70163 66:542.79053 67:566.6438 68:78.62236 69:0 70:0 71:0 72:0 73:3.5402577 74:5.0544515 75:24.149645 76:52.7062 77:104.47713 78:159.52551 79:130.68451 80:10.796283 81:0 82:0 83:0 84:0 85:10.628827 86:15.189761 87:65.80249 88:148.63673 89:274.71927 90:429.81027 91:378.96622 92:27.305349 93:0 94:0 95:0 96:0 97:21.28038 98:29.601551 99:135.75006 100:299.47577 101:565.64923 102:870.26959 103:751.17761 104:55.199738 105:0 106:0 107:0 108:0 109:12.407247 110:24.319614 111:89.668594 112:234.83914 113:453.77054 114:615.05688 115:509.15567 116:32.041332 117:0 118:0 119:0 120:0 121:11.128899 122:15.726192 123:68.908356 124:156.83214 125:291.40515 126:453.85712 127:396.37634 128:28.653242 129:0 130:0 131:0 132:0 133:12.845767 134:20.620598 135:86.468376 136:200.70026 137:386.82574 138:608.67273 139:550.76593 140:41.902206 141:0 142:0 143:0 144:0 145:22.939241 146:37.622078 147:148.05057 148:331.59012 149:618.39124 150:972.55792 151:945.56903 152:105.92348 153:0 154:0 155:0 156:0 157:14.168151 158:20.242487 159:89.945374 160:201.32686 161:379.16531 162:589.29004 163:509.60919 164:38.097473 165:0 166:0 167:0 168:0 169:2.1509907 170:5.8922887 171:19.926226 172:60.598629 173:143.83691 174:139.85294 175:107.34063 176:5.0859876 177:0 178:0 179:0 180:0 181:12.802543 182:20.304085 183:89.873825 184:211.43753 185:434.76672 186:580.31079 187:479.55093 188:32.980385 189:0 190:0 191:0 192:0 193:3.9294119 194:15.022148 195:43.792309 196:146.80096 197:322.88791 198:325.10013 199:237.52943 200:9.8219662 201:0 202:0 203:0 204:0 205:2.6510625 206:6.4287214 207:23.032084 208:68.794022 209:160.52246 210:163.89914 211:124.75 212:6.4338827 213:0 214:0 215:0 216:0 217:4.3679314 218:11.323127 219:40.592094 220:112.66213 221:255.94336 222:318.71561 223:279.13956 224:19.682848 225:0 226:0 227:0 228:0 229:14.46141 230:28.324602 231:102.17426 232:243.55191 233:487.50748 234:682.59894 235:673.9425 236:83.704147 237:0 238:0 239:0 240:0 241:5.6903129 242:10.945018 243:44.069115 244:113.28869 245:248.28261 246:299.33185 247:237.98285 248:15.878104 249:0 250:0 251:0 252:0 253:0.43973953 254:1.3631324 255:5.6103711 256:14.132485 257:33.010746 258:47.948799 259:23.367952 260:1.1118507 261:0 262:0 263:0 264:0 265:11.091293 266:15.774926 267:75.557945 268:164.9715 269:323.94055 270:488.40677 271:395.57877 272:29.006252 273:0 274:0 275:0 276:0 277:2.2181602 278:10.492992 279:29.476448 280:100.33498 281:212.06171 282:233.19568 283:153.55699 284:5.8478322 285:0 286:0 287:0 288:0 289:0.93981117 290:1.8995646 291:8.7162237 292:22.32789 293:49.69635 294:71.994865 295:40.777622 296:2.4597478 297:0 298:0 299:0 300:0 301:2.6566799 302:6.7939734 303:26.276245 304:66.196045 305:145.11693 306:226.81099 307:195.16753 308:15.708713 309:0 310:0 311:0 312:0 313:12.750158 314:23.795452 315:87.858475 316:197.08575 317:376.68167 318:590.69519 319:589.97003 320:79.730019 321:0 322:0 323:0 324:0 325:3.9790623 326:6.4158645 327:29.753248 328:66.822609 329:137.45625 330:207.42775 331:154.01079 332:11.903972 333:0 334:0 335:0 336:0 337:2.8236492 338:5.7986903 339:21.398989 340:52.486588 341:106.32586 342:171.15118 343:145.95889 344:12.128623 345:0 346:0 347:0 348:0 349:13.475204 350:20.210487 351:91.346581 352:203.32573 353:397.25577 354:611.61011 355:518.17023 356:40.023006 357:0 358:0 359:0 360:0 361:4.6020703 362:14.928548 363:45.265064 364:138.68916 365:285.37662 366:356.39902 367:276.14828 368:16.864597 369:0 370:0 371:0 372:0 373:3.3237207 374:6.3351226 375:24.504831 376:60.682114 377:123.01158 378:195.19794 379:163.36911 380:13.47651 381:0 382:0 383:0 384:0 385:5.0405898 386:11.229529 387:42.064869 388:104.55022 389:218.43221 390:350.01404 391:317.75882 392:26.725475 393:0 394:0 395:0 396:0 397:15.134068 398:28.231016 399:103.64704 400:235.43996 401:449.99689 402:713.89734 403:712.56146 404:90.746788 405:0 406:0 407:0 408:0 409:6.3629718 410:10.851421 411:45.541847 412:105.17689 413:210.77165 414:330.63089 415:276.60233 416:22.920738 417:0 418:0 419:0 420:0 421:11.693031 422:23.252792 423:89.134583 424:205.02409 425:387.64664 426:589.69531 427:604.91583 428:82.307442 429:0 430:0 431:0 432:0 433:22.344582 434:37.664581 435:159.08217 436:355.86362 437:678.57684 438:1030.1553 439:977.12634 440:110.20183 441:0 442:0 443:0 444:0 445:13.471453 446:32.382656 447:113.00069 448:291.22696 449:566.69757 450:774.94269 451:735.10529 452:87.043434 453:0 454:0 455:0 456:0 457:12.193107 458:23.78923 459:92.240425 460:213.21976 461:404.33237 462:613.7428 463:622.32642 464:83.655365 465:0 466:0 467:0 468:0 469:13.909971 470:28.683634 471:109.80051 472:257.08798 473:499.75311 474:768.55902 475:776.71399 476:96.904305 477:0 478:0 479:0 480:0 481:24.00345 482:45.685123 483:171.38271 484:387.97751 485:731.3183 486:1132.442 487:1171.5173 488:160.92558 489:0 490:0 491:0 492:0 493:15.232355 494:28.305525 495:113.2775 496:257.71466 497:492.09259 498:749.17517 499:735.55829 500:93.099579 501:0 502:0 503:0 504:0 505:3.2660975 506:5.5076385 507:22.14422 508:52.161282 509:101.53857 510:152.65541 511:128.55424 512:10.071164 513:0 514:0 515:0 516:0 517:13.91765 518:19.919436 519:92.091805 520:203.00024 521:392.46841 522:593.11279 523:500.76437 524:37.965569 525:0 526:0 527:0 528:0 529:5.0445185 530:14.637499 531:46.010281 532:138.36378 533:280.5896 534:337.90192 535:258.74365 536:14.80714 537:0 538:0 539:0 540:0 541:3.7661693 542:6.0440698 543:25.250069 544:60.356712 545:118.22424 546:176.70142 547:145.96399 548:11.419063 549:0 550:0 551:0 552:0 553:5.4830379 554:10.938476 555:42.810104 556:104.22484 557:213.64482 558:331.51773 559:300.35355 560:24.668028 561:0 562:0 563:0 564:0 565:15.576515 566:27.939955 567:104.39228 568:235.11462 569:445.20981 570:695.40143 571:695.15607 572:88.689301 573:0 574:0 575:0 576:0 577:6.8054199 578:10.560369 579:46.28709 580:104.85152 581:205.98436 582:312.13409 583:259.1973 584:20.863285 585:0 586:0 587:0 
1.602674739037503e-021 6.700661479606265e-021 0 6.255475413997441e-021 1.520423667765317e-020 0:0 1:0.001236767 2:0.0024434249 3:0.010467349 4:0.021537863 5:0.036348503 6:0.049137916 7:0.028023122 8:0.00012066275 9:0 10:0 11:0 12:0 13:8.8657398 14:15.975768 15:73.596519 16:154.52762 17:257.62878 18:300.13116 19:113.9447 20:0.43205211 21:0 22:0 23:0 24:0 25:0.60520458 26:1.2232524 27:5.078373 28:9.5753975 29:17.327084 30:28.795467 31:23.902102 32:0.20038716 33:0 34:0 35:0 36:0 37:8.8479443 38:14.507615 39:61.088924 40:140.7498 41:239.68408 42:342.79648 43:295.73044 44:0.9548921 45:0 46:0 47:0 48:0 49:5.4194903 50:12.958273 51:53.019939 52:104.34684 53:156.25334 54:210.46255 55:119.67188 56:0.23938318 57:0 58:0 59:0 60:0 61:12.022211 62:24.929134 63:102.70142 64:203.41905 65:374.13406 66:545.60803 67:277.18967 68:1.8179916 69:0 70:0 71:0 72:0 73:5.2425036 74:11.41207 75:51.540993 76:101.43551 77:160.06297 78:201.32944 79:98.631859 80:0.35559541 81:0 82:0 83:0 84:0 85:8.321723 86:17.074478 87:72.907509 88:156.62743 89:266.24561 90:354.20618 91:132.9407 92:0.13779981 93:0 94:0 95:0 96:0 97:17.186228 98:33.047798 99:146.49358 100:311.13345 101:523.83807 102:654.28845 103:246.85719 104:0.56973124 105:0 106:0 107:0 108:0 109:8.9256907 110:18.295286 111:77.975357 112:166.1812 113:283.53668 114:382.9523 115:156.81453 116:0.33806631 117:0 118:0 119:0 120:0 121:17.168432 122:31.579647 123:133.98595 124:297.35526 125:505.89365 126:696.95325 127:428.64285 128:1.0925713 129:0 130:0 131:0 132:0 133:13.739978 134:30.030306 135:125.91696 136:260.9527 137:422.46313 138:564.61938 139:252.58408 140:0.37706232 141:0 142:0 143:0 144:0 145:20.342693 146:42.001171 147:175.59848 148:360.0246 149:640.34393 150:899.76544 151:410.10168 152:1.9556708 153:0 154:0 155:0 156:0 157:13.562988 158:28.484114 159:124.43807 160:258.04144 161:426.27325 162:555.48608 163:231.54425 164:0.49327457 165:0 166:0 167:0 168:0 169:0.54520547 170:1.0797353 171:4.1407776 172:9.1558752 173:15.030347 174:21.095514 175:16.717995 176:0.087907813 177:0 178:0 179:0 180:0 181:9.4097109 182:17.053057 183:77.726799 184:163.66208 185:272.62299 186:321.17712 187:130.63466 188:0.51983923 189:0 190:0 191:0 192:0 193:1.1491731 194:2.3005445 195:9.208683 196:18.709723 197:32.321011 198:49.841621 199:40.591896 200:0.2881743 201:0 202:0 203:0 204:0 205:9.3919134 206:15.584907 207:65.219269 208:149.8838 209:254.67802 210:363.84213 211:312.42059 212:1.0426793 213:0 214:0 215:0 216:0 217:5.963459 218:14.035563 219:57.150215 220:113.48127 221:171.24728 222:231.509 223:136.36151 224:0.32717031 225:0 226:0 227:0 228:0 229:12.566177 230:26.006424 231:106.83165 232:212.55307 233:389.12848 234:566.65497 235:293.87924 236:1.9057788 237:0 238:0 239:0 240:0 241:5.7864714 242:12.489366 243:55.671345 244:110.56986 245:175.05711 246:222.37579 247:115.32187 248:0.44338259 249:0 250:0 251:0 252:0 253:8.9984407 254:11.445935 255:59.909077 256:116.61092 257:205.72272 258:266.74777 259:269.14621 260:2.8114476 261:0 262:0 263:0 264:0 265:17.862947 266:27.419258 267:133.49509 268:271.11707 269:463.31543 270:566.82916 271:383.06277 272:3.2433791 273:0 274:0 275:0 276:0 277:9.6024084 278:12.666743 279:64.976959 280:126.16473 281:223.01346 282:295.49365 283:293.02051 284:3.0117142 285:0 286:0 287:0 288:0 289:17.84515 290:25.951105 291:120.98752 292:257.33887 293:445.37027 294:609.49408 295:564.84827 296:3.7662191 297:0 298:0 299:0 300:0 301:14.41669 302:24.401762 303:112.91852 304:220.93619 305:361.94 306:477.16092 307:388.79004 308:3.0507102 309:0 310:0 311:0 312:0 313:21.019411 314:36.372623 315:162.60004 316:320.00803 317:579.82104 318:812.30664 319:546.30688 320:4.6293187 321:0 322:0 323:0 324:0 325:14.239705 326:22.855564 327:111.43967 328:218.02478 329:365.74933 330:468.0278 331:367.75006 332:3.1669223 333:0 334:0 335:0 336:0 337:5.5026584 338:11.4321 339:48.720924 340:98.526108 341:157.9617 342:192.78784 343:117.07597 344:0.10151011 345:0 346:0 347:0 348:0 349:14.367165 350:27.405426 351:122.30692 352:253.03227 353:415.55374 354:492.86908 355:230.99261 356:0.53344154 357:0 358:0 359:0 360:0 361:6.1066265 362:12.65291 363:53.788803 364:108.07997 365:175.25264 366:221.53395 367:140.94997 368:0.30177659 369:0 370:0 371:0 372:0 373:14.349366 374:25.937275 375:109.79938 376:239.25407 377:397.60968 378:535.53455 379:412.77844 380:1.0562816 381:0 382:0 383:0 384:0 385:10.920913 386:24.387926 387:101.73037 388:202.85132 389:314.17874 390:403.20157 391:236.71976 392:0.34077263 393:0 394:0 395:0 396:0 397:17.523632 398:36.358795 399:151.41194 400:301.92331 401:532.06012 402:738.34656 403:394.23727 404:1.9193811 405:0 406:0 407:0 408:0 409:10.743924 410:22.841728 411:100.25153 412:199.94016 413:317.98859 414:394.06802 415:215.67987 416:0.45698488 417:0 418:0 419:0 420:0 421:12.696907 422:27.344572 423:112.47308 424:227.70653 425:387.85925 426:567.98322 427:294.67349 428:0.64770162 429:0 430:0 431:0 432:0 433:21.561413 434:43.317871 435:186.05908 436:382.21255 437:645.45209 438:868.06519 439:408.58994 440:1.079633 441:0 442:0 443:0 444:0 445:13.300873 446:28.565371 447:117.54105 448:237.26021 449:405.15012 450:596.72986 451:318.54724 452:0.8479681 453:0 454:0 455:0 456:0 457:21.543613 458:41.849728 459:173.55161 460:368.43433 461:627.50745 462:910.73022 463:590.37604 464:1.602473 465:0 466:0 467:0 468:0 469:18.11516 470:40.300392 471:165.48254 472:332.03159 473:544.07629 474:778.39594 475:414.31665 476:0.88696414 477:0 478:0 479:0 480:0 481:24.71788 482:52.271244 483:215.16402 484:431.10342 485:761.9574 486:1113.5431 487:571.83435 488:2.4655726 489:0 490:0 491:0 492:0 493:17.938173 494:38.754192 495:164.00371 496:329.1203 497:547.88715 498:769.26349 499:393.27737 500:1.0031763 501:0 502:0 503:0 504:0 505:4.9381595 506:12.629297 507:48.874763 508:105.42742 509:172.27016 510:226.30309 511:98.516159 512:0.21393447 513:0 514:0 515:0 516:0 517:13.802662 518:28.602621 519:122.46086 520:259.93356 521:429.86237 522:526.38477 523:212.43289 524:0.64586592 525:0 526:0 527:0 528:0 529:5.5421267 530:13.850109 531:53.942719 532:114.98128 533:189.56056 534:255.0493 535:122.39021 536:0.41420096 537:0 538:0 539:0 540:0 541:13.784864 542:27.134476 543:109.95326 544:246.15549 545:411.91736 546:569.0495 547:394.21887 548:1.1687059 549:0 550:0 551:0 552:0 553:10.356412 554:25.585125 555:101.88423 556:209.7527 557:328.48672 558:436.71634 559:218.15991 560:0.45319697 561:0 562:0 563:0 564:0 565:16.959129 566:37.555984 567:151.56577 568:308.82474 569:546.36816 570:771.86267 571:375.67752 572:2.0318053 573:0 574:0 575:0 576:0 577:10.179426 578:24.038925 579:100.40541 580:206.84154 581:332.29657 582:427.58307 583:197.12013 584:0.56940919 585:0 586:0 587:0 
5.341609497196516e-021 0 0 2.768220310441716e-021 0 0:0 1:0.0010556988 2:0.0021114049 3:0.0086271958 4:0.020029595 5:0.036680695 6:0.046995375 7:0.033418149 8:0.00039207036 9:0 10:0 11:0 12:0 13:21.145638 14:44.396473 15:159.15509 16:371.01776 17:692.21381 18:956.53241 19:795.72876 20:9.8444748 21:0 22:0 23:0 24:0 25:2.2486269 26:3.0581083 27:20.079321 28:42.775032 29:77.627594 30:71.617165 31:17.277969 32:0.044729643 33:0 34:0 35:0 36:0 37:1.270867 38:1.0499116 39:8.8839493 40:24.265968 41:40.06636 42:41.198761 43:5.3601842 44:0.0061238986 45:0 46:0 47:0 48:0 49:0.73000085 50:1.4322811 51:9.9205666 52:22.971796 53:39.486797 54:40.365299 55:7.6912985 56:0.043750744 57:0 58:0 59:0 60:0 61:2.5024245 62:4.8472481 63:26.214304 64:61.647842 65:109.19015 66:123.25615 67:56.984413 68:0.54988098 69:0 70:0 71:0 72:0 73:7.1050858 74:15.221272 75:61.768379 76:141.37071 77:257.50543 78:325.14529 79:225.03931 80:2.5120208 81:0 82:0 83:0 84:0 85:21.094328 86:42.844284 87:154.89551 88:342.73215 89:620.88312 90:863.19183 91:778.79272 92:9.8444748 93:0 94:0 95:0 96:0 97:42.238911 98:87.238625 99:314.04199 100:713.73151 101:1313.0632 102:1819.6772 103:1574.4995 104:19.688557 105:0 106:0 107:0 108:0 109:23.3419 110:45.900276 111:174.96637 112:385.4874 113:698.47632 114:934.76367 115:796.04138 116:9.888813 117:0 118:0 119:0 120:0 121:22.364143 122:43.892082 123:163.77083 124:366.97879 125:660.91339 126:904.34509 127:784.11969 128:9.8502073 129:0 130:0 131:0 132:0 133:21.82328 134:44.274448 135:164.80756 136:365.68365 137:660.33533 138:903.51337 139:786.45386 140:9.8878336 141:0 142:0 143:0 144:0 145:23.595701 146:47.689411 147:181.10107 148:404.36002 149:730.03796 150:986.40564 151:835.75024 152:10.393964 153:0 154:0 155:0 156:0 157:28.198366 158:58.063461 159:216.65526 160:484.08328 161:878.34973 162:1188.285 163:1003.7898 164:12.356106 165:0 166:0 167:0 168:0 169:1.9297779 170:2.7692308 171:20.521572 172:43.92593 173:83.691994 174:85.991203 175:20.692947 176:0.044729643 177:0 178:0 179:0 180:0 181:23.074358 182:47.16357 183:179.66818 184:414.92456 185:775.87256 186:1042.4805 187:816.39288 188:9.888813 189:0 190:0 191:0 192:0 193:4.1773486 194:5.8252206 195:40.592213 196:86.680939 197:161.283 198:157.5616 199:37.937271 200:0.089067206 201:0 202:0 203:0 204:0 205:3.199589 206:3.8170278 207:29.396852 208:68.172066 209:123.72215 210:127.14375 211:26.019489 212:0.050461471 213:0 214:0 215:0 216:0 217:2.6587231 218:4.1993999 219:30.433516 220:66.877831 221:123.14207 222:126.30963 223:28.350866 224:0.088088319 225:0 226:0 227:0 228:0 229:4.4311466 230:7.6143675 231:46.727142 232:105.55388 233:192.84621 234:209.20158 235:77.643776 236:0.59421867 237:0 238:0 239:0 240:0 241:9.0338049 242:17.988384 243:82.281204 244:185.27652 245:341.15979 246:411.0882 247:245.69603 248:2.5563586 249:0 250:0 251:0 252:0 253:1.0987871 254:2.1325698 255:14.193802 256:36.074417 257:72.618698 258:68.565857 259:8.0756311 260:0.0061238986 261:0 262:0 263:0 264:0 265:22.243364 266:46.526928 267:173.34019 268:407.07336 269:764.79669 270:1025.0519 271:803.77124 272:9.8502073 273:0 274:0 275:0 276:0 277:3.3463578 278:5.1885614 279:34.264534 280:78.829659 281:150.20938 282:140.13612 283:25.319952 284:0.050461471 285:0 286:0 287:0 288:0 289:2.368598 290:3.1803677 291:23.069103 292:60.320484 293:112.64903 294:109.71853 295:13.402287 296:0.011855727 297:0 298:0 299:0 300:0 301:1.8277318 302:3.5627398 303:24.105778 304:59.026466 305:112.06921 306:108.88499 307:15.733335 308:0.049482573 309:0 310:0 311:0 312:0 313:3.6001549 314:6.9777069 315:40.399467 316:97.70253 317:181.77266 318:191.77574 319:65.027222 320:0.55561286 321:0 322:0 323:0 324:0 325:8.2028141 326:17.351723 327:75.953514 328:177.4256 329:330.08588 330:393.66101 331:233.08144 332:2.5177529 333:0 334:0 335:0 336:0 337:0.94676822 338:1.600924 339:12.395217 340:32.218864 341:63.336903 342:62.741463 343:9.8278656 344:0.043750744 345:0 346:0 347:0 348:0 349:22.091351 350:45.99527 351:171.54182 352:403.2168 353:755.51837 354:1019.2314 355:805.52802 356:9.8878336 357:0 358:0 359:0 360:0 361:3.1943388 362:4.656919 363:32.465923 364:74.973785 365:140.9281 366:134.31178 367:27.072496 368:0.088088319 369:0 370:0 371:0 372:0 373:2.2165792 374:2.6487241 375:21.270557 376:56.464935 377:103.36713 378:103.89384 379:15.154457 380:0.049482573 381:0 382:0 383:0 384:0 385:1.6757132 386:3.0310953 387:22.307142 388:55.170914 389:102.78732 390:103.06033 391:17.485559 392:0.087109409 393:0 394:0 395:0 396:0 397:3.4481366 398:6.446063 399:38.600887 400:93.846809 401:172.49101 402:185.95152 403:66.779427 404:0.59323961 405:0 406:0 407:0 408:0 409:8.0507956 410:16.820078 411:74.155045 412:173.56955 413:320.80441 414:387.83795 415:234.83179 416:2.5553799 417:0 418:0 419:0 420:0 421:2.9356134 422:5.6228242 423:27.626104 424:72.186417 425:130.425 426:152.49248 427:61.858681 428:0.54988098 429:0 430:0 431:0 432:0 433:24.080198 434:50.017162 435:186.77242 436:443.18454 437:822.60553 438:1108.9813 439:857.56274 440:10.393964 441:0 442:0 443:0 444:0 445:5.1831837 446:8.6788197 447:47.696732 448:114.94144 449:208.01653 450:224.06369 451:79.10302 452:0.59421867 453:0 454:0 455:0 456:0 457:4.2054238 458:6.6706247 459:36.501419 460:96.432549 461:170.45554 462:193.64532 463:67.186028 464:0.55561286 465:0 466:0 467:0 468:0 469:3.6645579 470:7.0529966 471:37.538048 472:95.138321 473:169.8757 474:192.81216 475:69.517044 476:0.59323961 477:0 478:0 479:0 480:0 481:5.4369817 482:10.467967 483:53.831738 484:133.81429 485:239.57896 486:275.70215 487:118.8098 488:1.0993701 489:0 490:0 491:0 492:0 493:10.039639 494:20.841976 495:89.38588 496:213.53728 497:387.89294 498:477.58911 499:286.86475 500:3.0615103 501:0 502:0 503:0 504:0 505:6.9973626 506:15.035452 507:56.389359 508:136.91161 509:245.13509 510:325.13394 511:228.83469 512:2.5120208 513:0 514:0 515:0 516:0 517:28.141953 518:59.42981 519:215.53587 520:507.91074 521:937.31274 522:1281.6199 523:1024.5232 524:12.356106 525:0 526:0 527:0 528:0 529:9.2449331 530:18.091444 531:76.459991 532:179.66675 533:322.72549 534:396.70364 535:246.07681 536:2.5563586 537:0 538:0 539:0 540:0 541:8.2671728 542:16.083241 543:65.264656 544:161.15804 545:285.16418 546:366.2847 547:234.16158 548:2.5177529 549:0 550:0 551:0 552:0 553:7.7263074 554:16.465614 555:66.3013 556:159.86374 557:284.58417 558:365.45166 559:236.49069 560:2.5553799 561:0 562:0 563:0 564:0 565:9.4987297 566:19.880581 567:82.59507 568:198.5401 569:354.28809 570:448.3418 571:285.78653 572:3.0615103 573:0 574:0 575:0 576:0 577:14.101391 578:30.254602 579:118.14919 580:278.26257 581:502.60266 582:650.23022 583:453.84009 584:5.0236497 585:0 586:0 587:0 
6.082506002691257e-022 0 0 0 0 0:0 1:0.0011160161 2:0.0019002988 3:0.0076316856 4:0.019184712 5:0.034930471 6:0.046542056 7:0.035922579 8:0.0020809891 9:0 10:0 11:0 12:0 13:20.834812 14:35.45927 15:121.05226 16:300.27634 17:547.48779 18:783.97498 19:762.22577 20:52.231449 21:0 22:0 23:0 24:0 25:1.5377153 26:2.8981121 27:21.160299 28:50.885082 29:92.826569 30:119.58279 31:29.030434 32:0.23793152 33:0 34:0 35:0 36:0 37:1.0129598 38:0.95261163 39:9.5583553 40:20.300402 41:43.956467 42:39.171005 43:14.471003 44:0.032583319 45:0 46:0 47:0 48:0 49:2.8885345 50:4.188251 51:24.561777 52:62.589436 53:116.89293 54:140.88991 55:48.684948 56:0.23250678 57:0 58:0 59:0 60:0 61:4.2564769 62:7.5668111 63:34.333271 64:91.934456 65:164.27881 66:206.59253 67:110.89094 68:2.9391692 69:0 70:0 71:0 72:0 73:6.4722896 74:11.939683 75:42.353176 76:110.06174 77:192.64214 78:252.90503 79:225.78564 80:13.331559 81:0 82:0 83:0 84:0 85:21.196842 86:34.056335 87:129.68602 88:318.05685 89:614.13007 90:916.09009 91:808.02191 92:52.251427 93:0 94:0 95:0 96:0 97:42.030537 98:69.51371 99:250.73059 100:618.3147 101:1161.5836 102:1700.0173 103:1570.2163 104:104.48077 105:0 106:0 107:0 108:0 109:22.733442 110:36.952553 111:150.83876 112:368.92273 113:706.92151 114:1035.6294 115:837.02051 116:52.487274 117:0 118:0 119:0 120:0 121:22.208693 122:35.007053 123:139.23659 124:338.3382 125:658.05145 126:955.2157 127:822.45752 128:52.281967 129:0 130:0 131:0 132:0 133:24.084267 134:38.242687 135:154.24013 136:380.62717 137:730.98798 138:1056.9365 139:856.67377 140:52.481838 141:0 142:0 143:0 144:0 145:25.452206 146:41.621239 147:164.01161 148:409.97235 149:778.37299 150:1122.6383 151:918.88007 152:55.18848 153:0 154:0 155:0 156:0 157:27.668024 158:45.994129 159:172.03145 160:428.0997 161:806.7359 162:1168.9508 163:1033.7704 164:65.58094 165:0 166:0 167:0 168:0 169:1.4772148 170:3.2275858 171:12.695273 172:46.206299 173:72.325516 174:72.520241 175:23.946527 176:0.23741111 177:0 178:0 179:0 180:0 181:22.310917 182:38.684971 183:133.7399 184:346.46365 185:619.77966 186:856.44861 187:786.13977 188:52.466778 189:0 190:0 191:0 192:0 193:3.0138144 194:6.123795 195:33.847939 196:97.072121 197:165.11728 198:192.05649 199:52.94096 200:0.47326156 201:0 202:0 203:0 204:0 205:2.489059 206:4.1782966 207:22.245993 208:66.487488 209:116.24718 210:111.6449 211:38.381596 212:0.26791343 213:0 214:0 215:0 216:0 217:4.3646336 218:7.4139323 219:37.24942 220:108.77653 221:189.1837 222:213.36365 223:72.595802 224:0.46783724 225:0 226:0 227:0 228:0 229:5.7325759 230:10.792493 231:47.020897 232:138.12157 233:236.5697 234:279.06671 235:134.80177 236:3.1744993 237:0 238:0 239:0 240:0 241:7.9483876 242:15.165367 243:55.040798 244:156.24886 245:264.93262 246:325.37814 247:249.69489 248:13.566878 249:0 250:0 251:0 252:0 253:0.89862812 254:1.5248933 255:8.2662239 256:22.349184 257:33.988205 258:26.957407 259:9.4686337 260:0.032503758 261:0 262:0 263:0 264:0 265:21.73233 266:36.982285 267:129.31078 268:322.60675 269:581.44238 270:810.8855 271:771.65747 272:52.261913 273:0 274:0 275:0 276:0 277:2.4352276 278:4.4211054 279:29.41889 280:73.215141 281:126.78008 282:146.4939 283:38.463127 284:0.26835427 285:0 286:0 287:0 288:0 289:1.910472 290:2.4756043 291:17.816931 292:42.630352 293:77.909836 294:66.082024 295:23.903625 296:0.06300617 297:0 298:0 299:0 300:0 301:3.786047 302:5.7112427 303:32.820362 304:84.919487 305:150.84659 306:167.80113 307:58.118168 308:0.26292959 309:0 310:0 311:0 312:0 313:5.1539884 314:9.0898046 315:42.591877 316:114.26443 317:198.23236 318:233.50351 319:120.32401 320:2.969589 321:0 322:0 323:0 324:0 325:7.369802 326:13.462676 327:50.61174 328:132.39174 329:226.5954 330:279.81573 331:235.21771 332:13.361969 333:0 334:0 335:0 336:0 337:2.7735388 338:5.583662 339:21.553968 340:53.608921 341:80.174301 342:80.98951 343:29.453762 344:0.23221549 345:0 346:0 347:0 348:0 349:23.607239 350:41.041035 351:142.59863 352:353.86652 353:627.62909 354:864.91925 355:791.64642 356:52.461571 357:0 358:0 359:0 360:0 361:4.3101382 362:8.4798717 363:42.706646 364:104.47476 365:172.96646 366:200.52602 367:58.448284 368:0.46806636 369:0 370:0 371:0 372:0 373:3.7853823 374:6.5343714 375:31.104677 376:73.890121 377:124.09637 378:120.11469 379:43.888958 380:0.26271787 381:0 382:0 383:0 384:0 385:5.6609573 386:9.770009 387:46.108089 388:116.17916 389:197.03311 390:221.83345 391:78.103188 392:0.46264124 393:0 394:0 395:0 396:0 397:7.0288987 398:13.148574 399:55.879601 400:145.52419 401:244.41881 402:287.5369 403:140.3093 404:3.1693015 405:0 406:0 407:0 408:0 409:9.2447119 410:17.521442 411:63.899479 412:163.65157 413:272.78198 414:333.84833 415:255.20244 416:13.561683 417:0 418:0 419:0 420:0 421:4.256711 422:7.6280966 423:33.395733 424:80.325897 425:137.30428 426:151.59508 427:91.146477 428:2.9186001 429:0 430:0 431:0 432:0 433:25.09041 434:43.085472 435:154.44038 436:380.58359 437:684.75916 438:935.52283 439:853.33765 440:55.147934 441:0 442:0 443:0 444:0 445:5.7933102 446:10.524307 447:54.548405 448:131.19186 449:230.09642 450:271.13153 451:120.14114 452:3.1544502 453:0 454:0 455:0 456:0 457:5.2685537 458:8.5788116 459:42.946445 460:100.60721 461:181.22644 462:190.72 463:105.58219 464:2.9490993 465:0 466:0 467:0 468:0 469:7.1441288 470:11.814451 471:57.949863 472:142.89632 473:254.16325 474:292.4389 475:139.7964 476:3.1490235 477:0 478:0 479:0 480:0 481:8.5120707 482:15.193012 483:67.721367 484:172.24127 485:301.54922 486:358.14203 487:202.0022 488:5.8556886 489:0 490:0 491:0 492:0 493:10.727884 494:19.56588 495:75.741211 496:190.36867 497:329.91202 498:404.45294 499:316.896 500:16.248058 501:0 502:0 503:0 504:0 505:6.3998542 506:10.984177 507:47.421955 508:115.50061 509:220.16557 510:294.96103 511:229.05075 512:13.333041 513:0 514:0 515:0 516:0 517:27.233555 518:46.441563 519:168.46658 520:415.75809 521:767.61975 522:1078.8888 523:991.23914 524:65.562439 525:0 526:0 527:0 528:0 529:7.9364524 530:13.880383 531:68.574654 532:166.36655 533:312.95712 534:414.49817 535:258.04391 536:13.56888 537:0 538:0 539:0 540:0 541:7.4116974 542:11.934878 543:56.972687 544:135.78192 545:264.08679 546:334.08606 547:243.48553 548:13.36353 549:0 550:0 551:0 552:0 553:9.2872715 554:15.170522 555:71.976112 556:178.07109 557:337.02341 558:435.80508 559:277.69897 560:13.563456 561:0 562:0 563:0 564:0 565:10.655215 566:18.549086 567:81.747566 568:207.41606 569:384.40915 570:501.50702 571:339.90555 572:16.270109 573:0 574:0 575:0 576:0 577:12.871026 578:22.921957 579:89.767517 580:225.54318 581:412.77228 582:547.81891 583:454.79837 584:26.662504 585:0 586:0 587:0 
-0 2.091306966706326e-021 0 0 0 0:0 1:0.00060325343 2:0.0011462028 3:0.0054896036 4:0.013120738 5:0.02407041 6:0.037885219 7:0.049526814 8:0.017463086 9:0 10:0 11:0 12:0 13:11.882452 14:21.554008 15:109.19342 16:259.87738 17:458.6741 18:714.11835 19:975.60583 20:359.91174 21:0 22:0 23:0 24:0 25:1.3197166 26:2.6686475 27:9.9787521 28:26.562206 29:47.232433 30:71.898102 31:84.087021 32:14.174843 33:0 34:0 35:0 36:0 37:0.043926254 38:0.33353364 39:1.7570543 40:3.6959534 41:9.8496313 42:18.898693 43:15.22038 44:0.44332519 45:0 46:0 47:0 48:0 49:0.38180345 50:0.95291114 51:4.8617125 52:9.6843243 53:24.69558 54:46.927933 55:42.418022 56:7.8233414 57:0 58:0 59:0 60:0 61:2.099226 62:4.9089007 63:17.071472 64:44.661625 65:96.163208 66:159.75235 67:205.38237 68:80.297089 69:0 70:0 71:0 72:0 73:4.2743831 74:7.5848632 75:39.151306 76:90.551277 77:161.44562 78:244.49881 79:319.40649 80:116.39317 81:0 82:0 83:0 84:0 85:11.815425 86:21.523228 87:104.76218 88:249.02301 89:424.85208 90:667.59979 91:953.10291 92:364.37057 93:0 94:0 95:0 96:0 97:23.697277 98:43.076092 99:213.9501 100:508.88708 101:883.50134 102:1381.6802 103:1928.6602 104:724.26422 105:0 106:0 107:0 108:0 109:13.134538 110:24.190731 111:114.73544 112:275.57211 113:472.0607 114:739.45923 115:1037.1379 116:378.52713 117:0 118:0 119:0 120:0 121:11.858748 122:21.855616 123:106.51378 124:252.70583 125:434.67761 126:686.461 127:968.27252 128:364.79556 129:0 130:0 131:0 132:0 133:12.196625 134:22.474995 135:109.61841 136:258.69421 137:449.5235 138:714.48901 139:995.46924 140:372.17542 141:0 142:0 143:0 144:0 145:13.914048 146:26.430986 147:121.82815 148:293.67163 149:520.99121 150:827.31482 151:1158.4349 152:444.64917 153:0 154:0 155:0 156:0 157:16.089205 158:29.106941 159:143.908 160:339.56097 161:586.27386 162:912.06018 163:1272.4598 164:480.74561 165:0 166:0 167:0 168:0 169:1.0350665 170:2.177768 171:9.6181841 172:22.18117 173:39.736774 174:65.426682 175:81.019798 176:13.824227 177:0 178:0 179:0 180:0 181:12.916916 182:23.730631 183:118.80611 184:282.04544 185:498.38641 186:779.50696 187:1056.5785 188:373.71857 189:0 190:0 191:0 192:0 193:2.3541799 194:4.8452692 195:19.591442 196:48.730274 197:86.945099 198:137.28656 199:165.05647 200:27.981625 201:0 202:0 203:0 204:0 205:1.0783894 206:2.510155 207:11.369745 208:25.864004 209:49.562263 210:84.287354 211:96.19017 212:14.250091 213:0 214:0 215:0 216:0 217:1.4162668 218:3.1295326 219:14.474406 220:31.85239 221:64.408226 222:112.31654 223:123.38795 224:21.63011 225:0 226:0 227:0 228:0 229:3.1336899 230:7.0855236 231:26.684151 232:66.829651 233:135.8759 234:225.14151 235:286.3533 236:94.103935 237:0 238:0 239:0 240:0 241:5.308847 242:9.7614851 243:48.764 244:112.71929 245:201.15836 246:309.88763 247:400.37671 248:130.20007 249:0 250:0 251:0 252:0 253:0.17033544 254:0.52325284 255:3.1380131 256:7.0248508 257:21.401464 258:35.845032 259:19.460007 260:0.80479652 261:0 262:0 263:0 264:0 265:12.052185 266:22.076118 267:112.32597 268:266.88913 269:480.05124 270:749.92548 271:995.01886 272:360.6991 273:0 274:0 275:0 276:0 277:1.4894489 278:3.1907542 279:13.111266 280:33.573967 281:68.609871 282:107.70517 283:103.49712 284:14.962172 285:0 286:0 287:0 288:0 289:0.21365848 290:0.85564029 291:4.8895779 292:10.707685 293:31.227007 294:54.705696 295:34.63089 296:1.2306573 297:0 298:0 299:0 300:0 301:0.55153555 302:1.4750178 303:7.9942341 304:16.696062 305:46.072941 306:82.734955 307:61.828457 308:8.6106653 309:0 310:0 311:0 312:0 313:2.2689583 314:5.4310083 315:20.203981 316:51.67334 317:117.54076 318:195.55981 319:224.79384 320:81.08448 321:0 322:0 323:0 324:0 325:4.4441152 326:8.1069689 327:42.28384 328:97.563004 329:182.82292 330:280.30603 331:338.81784 332:117.18061 333:0 334:0 335:0 336:0 337:0.66491383 338:0.98712152 339:6.5619521 340:13.000724 341:39.094803 342:63.254436 343:50.188427 344:8.9726219 345:0 346:0 347:0 348:0 349:12.546762 350:22.53998 351:115.74991 352:272.86511 353:497.74442 354:777.33478 355:1025.7465 356:368.867 357:0 358:0 359:0 360:0 361:1.9840269 362:3.6546228 363:16.535213 364:39.549812 365:86.303162 366:135.11462 367:134.22571 368:23.129993 369:0 370:0 371:0 372:0 373:0.70823693 374:1.3195088 375:8.3135118 376:16.683569 377:48.920303 378:82.115196 379:65.35923 380:9.3984919 381:0 382:0 383:0 384:0 385:1.046114 386:1.9388862 387:11.418175 388:22.671928 389:63.766293 390:110.1446 391:92.556778 392:16.778498 393:0 394:0 395:0 396:0 397:2.7635367 398:5.8948765 399:23.627926 400:57.649231 401:135.23409 402:222.96947 403:255.5222 404:89.252304 405:0 406:0 407:0 408:0 409:4.938694 410:8.570838 411:45.707783 412:103.53888 413:200.51625 414:307.71573 415:369.5466 416:125.3485 417:0 418:0 419:0 420:0 421:2.3174331 422:5.1378312 423:19.888657 424:58.459961 425:119.53056 426:177.24985 427:208.11934 428:70.049683 429:0 430:0 431:0 432:0 433:14.199283 434:26.690691 435:129.07658 436:318.32434 437:578.18054 438:891.3302 439:1183.6781 440:429.94403 441:0 442:0 443:0 444:0 445:3.6365464 446:7.8053341 447:29.861927 448:85.009033 449:166.73907 450:249.11009 451:292.15662 452:84.207115 453:0 454:0 455:0 456:0 457:2.3607559 458:5.4702191 459:21.640226 460:62.142796 461:129.35626 462:196.11066 463:223.29056 464:70.475609 465:0 466:0 467:0 468:0 469:2.6986334 470:6.0895967 471:24.744892 472:68.13118 473:144.20235 474:224.14008 475:250.48778 476:77.855606 477:0 478:0 479:0 480:0 481:4.4160562 482:10.045586 483:36.954643 484:103.10847 485:215.67006 486:336.96512 487:413.45319 488:150.32939 489:0 490:0 491:0 492:0 493:6.5912127 494:12.721547 495:59.034481 496:148.99823 497:280.95218 498:421.711 499:527.47705 500:186.42554 501:0 502:0 503:0 504:0 505:3.9983337 506:7.6536646 507:38.044754 508:85.343193 509:153.44434 510:246.71849 511:330.23541 512:121.02268 513:0 514:0 515:0 516:0 517:15.880181 518:29.206524 519:147.23271 520:345.20721 521:612.09375 522:960.79919 523:1305.7939 524:480.91684 525:0 526:0 527:0 528:0 529:5.3174467 530:10.321165 531:48.01799 532:111.8922 533:200.6528 534:318.57925 535:414.27249 536:135.17986 537:0 538:0 539:0 540:0 541:4.0416565 542:7.986053 543:39.796326 544:89.025963 545:163.27007 546:265.58002 547:345.40585 548:121.44834 549:0 550:0 551:0 552:0 553:4.3795342 554:8.6054296 555:42.90097 556:95.014366 557:178.11601 558:293.60916 559:372.60345 560:128.82843 561:0 562:0 563:0 564:0 565:6.0969563 566:12.56142 567:55.110737 568:129.99161 569:249.58359 570:406.43442 571:535.56873 572:201.30225 573:0 574:0 575:0 576:0 577:8.2721138 578:15.237383 579:77.190582 580:175.88116 581:314.86606 582:491.18002 583:649.59332 584:237.39836 585:0 586:0 587:0 
-2.094400400765866e-021 0 1.289374210324145e-022 6.81060508520311e-021 8.231517894761173e-021 0:0 1:0.00060327788 2:0.0011462176 3:0.005489856 4:0.01312136 5:0.02407095 6:0.037886247 7:0.049529273 8:0.017465383 9:0 10:0 11:0 12:0 13:5.6016407 14:9.894989 15:56.042805 16:134.67554 17:247.88831 18:392.20978 19:473.17621 20:123.98775 21:0 22:0 23:0 24:0 25:0.83884746 26:1.1898464 27:6.3650737 28:13.343328 29:26.771946 30:45.243519 31:52.507099 32:12.268012 33:0 34:0 35:0 36:0 37:0.26095548 38:0.56067383 39:2.258251 40:5.3727508 41:10.244505 42:17.25437 43:25.492628 44:14.056433 45:0 46:0 47:0 48:0 49:2.6402113 50:6.7688317 51:23.883432 52:56.113628 53:110.52038 54:195.58719 55:290.10162 56:167.91348 57:0 58:0 59:0 60:0 61:8.4031897 62:15.610077 63:71.483597 64:173.36281 65:305.48581 66:454.37344 67:615.88666 68:210.60187 69:0 70:0 71:0 72:0 73:2.2566659 74:3.9784498 75:21.980585 76:52.164906 77:97.149483 78:151.4276 79:184.95953 80:50.216217 81:0 82:0 83:0 84:0 85:5.6127148 86:10.685154 87:51.233288 88:134.30898 89:251.47839 90:396.63928 91:495.87976 92:155.19005 93:0 94:0 95:0 96:0 97:11.213751 98:20.578995 99:107.2706 100:268.97165 101:499.34238 102:788.80994 103:969.00433 104:279.16037 105:0 106:0 107:0 108:0 109:6.4509592 110:11.873852 111:57.592873 112:147.63939 113:278.22607 114:441.84427 115:548.33777 116:167.44051 117:0 118:0 119:0 120:0 121:5.8730669 122:11.244679 123:53.486038 124:139.66867 125:261.69873 126:413.8551 127:521.32263 128:169.22891 129:0 130:0 131:0 132:0 133:8.2523232 134:17.452835 135:75.111237 136:190.40952 137:361.97409 138:592.18774 139:785.93219 140:323.08575 141:0 142:0 143:0 144:0 145:14.015301 146:26.294085 147:122.7114 148:307.6586 149:556.94049 150:850.97473 151:1111.718 152:365.77417 153:0 154:0 155:0 156:0 157:7.8687773 158:14.662453 159:73.208389 160:186.46074 161:348.60379 162:548.02856 163:680.78979 164:205.38876 165:0 166:0 167:0 168:0 169:0.76816732 170:1.3748826 171:6.3777943 172:17.568241 173:32.164547 174:53.56213 175:70.703766 176:23.184807 177:0 178:0 179:0 180:0 181:6.3692036 182:11.268726 183:62.415096 184:152.23059 185:280.02863 186:445.73288 187:543.8288 188:147.15512 189:0 190:0 191:0 192:0 193:1.6064115 194:2.5635824 195:12.737376 196:30.898449 197:58.912388 198:98.767708 199:123.16133 200:35.435337 201:0 202:0 203:0 204:0 205:1.0285195 206:1.9344102 207:8.6305561 208:22.927862 209:42.38493 210:70.778419 211:96.146561 212:37.223755 213:0 214:0 215:0 216:0 217:3.4077756 218:8.1425686 219:30.255743 220:73.668732 221:142.66057 222:249.11098 223:360.75565 224:191.08072 225:0 226:0 227:0 228:0 229:9.1707525 230:16.983812 231:77.855858 232:190.91776 233:337.62643 234:507.89789 235:686.54224 236:233.76923 237:0 238:0 239:0 240:0 241:3.0242295 242:5.3521857 243:28.352898 244:69.720016 245:129.28984 246:204.95135 247:255.61313 248:73.383492 249:0 250:0 251:0 252:0 253:0.28893006 254:0.71768719 255:3.0396814 256:6.825449 257:12.333533 258:18.336067 259:26.033333 260:10.729915 261:0 262:0 263:0 264:0 265:5.8899674 266:10.611527 267:59.076958 268:141.48785 269:260.19785 270:410.50702 271:499.15869 272:134.70026 273:0 274:0 275:0 276:0 277:1.1271743 278:1.9063873 279:9.3992634 280:20.155678 281:39.08139 282:63.541748 283:78.490974 284:22.980455 285:0 286:0 287:0 288:0 289:0.54928225 290:1.2772146 291:5.2924442 292:12.185081 293:22.553955 294:35.552551 295:51.476383 296:24.768848 297:0 298:0 299:0 300:0 301:2.9285386 302:7.4853721 303:26.917631 304:62.925972 305:122.82971 306:213.88495 307:316.08563 308:178.62589 309:0 310:0 311:0 312:0 313:8.691515 314:16.326616 315:74.517776 316:180.17499 317:317.79526 318:472.67218 319:641.8717 320:221.3143 321:0 322:0 323:0 324:0 325:2.5449929 326:4.6949902 327:25.014784 328:58.977245 329:109.45887 330:169.72545 331:210.9429 332:60.928684 333:0 334:0 335:0 336:0 337:3.0492423 338:7.026361 339:29.408974 340:70.144356 341:123.77959 342:185.06122 343:277.02924 344:122.59959 345:0 346:0 347:0 348:0 349:8.650279 350:16.920204 351:85.446281 352:204.80681 353:371.64328 354:577.23132 355:750.15546 356:246.57008 357:0 358:0 359:0 360:0 361:3.8874865 362:8.2150621 363:35.768566 364:83.474571 365:150.5273 366:230.26637 367:329.48724 368:134.85004 369:0 370:0 371:0 372:0 373:3.3095946 374:7.5858893 375:31.661745 376:75.503967 377:133.99988 378:202.27737 379:302.47223 380:136.63843 381:0 382:0 383:0 384:0 385:5.6888514 386:13.794044 387:53.286915 388:126.24487 389:234.27544 390:380.60953 391:567.08118 392:290.49542 393:0 394:0 395:0 396:0 397:11.451828 398:22.635292 399:100.88708 400:243.49382 401:429.24139 402:639.39606 403:892.86749 404:333.18408 405:0 406:0 407:0 408:0 409:5.3053055 410:11.003664 411:51.384071 412:122.2961 413:220.90495 414:336.4505 415:461.93958 416:172.79829 417:0 418:0 419:0 420:0 421:8.0071192 422:13.815358 423:71.772263 424:151.98828 425:275.29053 426:440.18622 427:579.30072 428:206.77531 429:0 430:0 431:0 432:0 433:13.608155 434:23.7092 435:127.80959 436:286.65079 437:523.15479 438:832.35632 439:1052.4261 440:330.74557 441:0 442:0 443:0 444:0 445:8.8453627 446:15.004059 447:78.131836 448:165.31853 449:302.0386 450:485.39154 451:631.75848 452:219.0257 453:0 454:0 455:0 456:0 457:8.2674704 458:14.374886 459:74.025047 460:157.34796 461:285.51105 462:457.40256 463:604.7442 464:220.81432 465:0 466:0 467:0 468:0 469:10.646727 470:20.583042 471:95.650192 472:208.08875 473:385.78699 474:635.73462 475:869.35297 476:374.67096 477:0 478:0 479:0 480:0 481:16.409704 482:29.42429 483:143.25037 484:325.33777 485:580.75262 486:894.52197 487:1195.1398 488:417.35968 489:0 490:0 491:0 492:0 493:10.26318 494:17.792662 495:93.74736 496:204.14008 497:372.41599 498:591.57526 499:764.211 500:256.97403 501:0 502:0 503:0 504:0 505:2.2753356 506:4.3834238 507:20.181698 508:54.197422 509:103.01391 510:162.31079 511:193.17677 512:60.564209 513:0 514:0 515:0 516:0 517:7.8763714 518:14.277267 519:76.218987 520:188.85991 521:350.87775 522:554.48138 523:666.30206 524:184.53455 525:0 526:0 527:0 528:0 529:3.1135795 530:5.5721245 531:26.541285 532:67.527672 533:129.76152 534:207.51633 535:245.63452 536:72.814758 537:0 538:0 539:0 540:0 541:2.5356874 542:4.9429507 543:22.43446 544:59.557064 545:113.23424 546:179.52721 547:218.61983 548:74.603157 549:0 550:0 551:0 552:0 553:4.9149437 554:11.15111 555:44.059662 556:110.29795 557:213.5097 558:357.8598 559:483.22897 560:228.4601 561:0 562:0 563:0 564:0 565:10.677918 566:19.992353 567:91.659798 568:227.54694 569:408.47574 570:616.64691 571:809.01538 572:271.1485 573:0 574:0 575:0 576:0 577:4.5313978 578:8.3607273 579:42.156807 580:106.34925 581:200.13907 582:313.70029 583:378.08643 584:110.76286 585:0 586:0 587:0 
-3.565077989567712e-021 0 0 3.027417438820021e-022 0 0:0 1:0.0006937444 2:0.0014779632 3:0.005972615 4:0.01426802 5:0.026183501 6:0.041537214 7:0.046783384 8:0.012396424 9:0 10:0 11:0 12:0 13:12.678965 14:28.162521 15:101.023 16:235.47516 17:433.88116 18:696.9903 19:912.07367 20:271.38797 21:0 22:0 23:0 24:0 25:1.344782 26:1.7090909 27:9.2991037 28:27.701351 29:50.688011 30:91.69223 31:51.332939 32:3.1356936 33:0 34:0 35:0 36:0 37:0.44555402 38:2.8984222 39:10.205859 40:29.149466 41:52.606316 42:80.565514 43:36.232586 44:2.4553699 45:0 46:0 47:0 48:0 49:1.3664426 50:1.7718942 51:13.54501 52:31.545975 53:59.052628 54:84.187325 55:65.863022 56:9.9704504 57:0 58:0 59:0 60:0 61:3.6479695 62:7.1506329 63:33.856689 64:79.279907 65:139.62572 66:216.29785 67:229.83383 68:51.786846 69:0 70:0 71:0 72:0 73:3.5180213 74:7.3111291 75:30.085327 76:69.883492 77:132.21175 78:207.3712 79:255.77953 80:72.294357 81:0 82:0 83:0 84:0 85:12.992473 86:27.337288 87:101.45592 88:223.14319 89:383.69424 90:650.7851 91:867.07922 92:256.19931 93:0 94:0 95:0 96:0 97:25.67074 98:55.498333 99:202.47289 100:458.60406 101:817.54895 102:1347.7354 103:1779.1104 104:527.57477 105:0 106:0 107:0 108:0 109:14.336562 110:29.044903 111:110.749 112:250.83032 113:434.35574 114:742.43738 115:918.36859 116:259.32278 117:0 118:0 119:0 120:0 121:13.437333 122:30.234232 123:111.65575 124:252.27831 125:436.27463 126:731.30945 127:903.26752 128:258.64224 129:0 130:0 131:0 132:0 133:14.358221 134:29.107704 135:114.99493 136:254.67503 137:442.72046 138:734.93158 139:932.89844 140:266.15732 141:0 142:0 143:0 144:0 145:16.639748 146:34.486446 147:135.30658 148:302.40903 149:523.29382 150:867.04199 151:1096.8689 152:307.97388 153:0 154:0 155:0 156:0 157:16.509802 158:34.646942 159:131.5352 160:293.01236 161:515.87976 162:858.11499 163:1122.8137 164:328.48123 165:0 166:0 167:0 168:0 169:0.72112828 170:1.9165616 171:7.315506 172:29.27973 173:57.920128 174:69.636986 175:57.48241 176:4.0407982 177:0 178:0 179:0 180:0 181:13.399402 182:30.077606 183:108.33248 184:264.74075 185:491.7749 186:766.5863 187:969.51135 188:275.41672 189:0 190:0 191:0 192:0 193:2.0652165 194:3.6241746 195:16.608637 196:56.966858 197:108.58183 198:161.28755 199:108.76847 200:7.1640878 201:0 202:0 203:0 204:0 205:1.1659886 206:4.8135056 207:17.515394 208:58.414967 209:110.50036 210:150.16096 211:93.668304 212:6.4837613 213:0 214:0 215:0 216:0 217:2.0868771 218:3.6869786 219:20.854544 220:60.811474 221:116.94653 222:153.78261 223:123.29876 224:13.99884 225:0 226:0 227:0 228:0 229:4.3684039 230:9.0657187 231:41.166218 232:108.54545 233:197.51968 234:285.89297 235:287.26953 236:55.815239 237:0 238:0 239:0 240:0 241:4.2384567 242:9.2262144 243:37.394867 244:99.148964 245:190.10585 246:276.966 247:313.2149 248:76.322716 249:0 250:0 251:0 252:0 253:1.3522208 254:3.0119126 255:15.425992 256:46.406952 257:100.38992 258:128.35973 259:70.719841 260:7.1147003 261:0 262:0 263:0 264:0 265:14.030494 266:31.172958 267:116.44301 268:281.86813 269:534.24414 270:825.30817 271:982.74908 272:278.49048 273:0 274:0 275:0 276:0 277:2.6963089 278:4.7195253 279:24.719114 280:74.094154 281:151.0515 282:220.00995 283:122.00619 284:10.237988 285:0 286:0 287:0 288:0 289:1.797081 290:5.9088578 291:25.625868 292:75.542282 293:152.96997 294:208.88365 295:106.90604 296:9.5576591 297:0 298:0 299:0 300:0 301:2.7179699 302:4.7823296 303:28.965031 304:77.93882 305:159.416 306:212.5049 307:136.53654 308:17.072735 309:0 310:0 311:0 312:0 313:4.9994955 314:10.16107 315:49.276711 316:125.67278 317:239.98943 318:344.61508 319:300.50629 320:58.889191 321:0 322:0 323:0 324:0 325:4.8695483 326:10.321566 327:45.505333 328:116.27634 329:232.57515 330:335.68851 331:326.45242 332:79.396622 333:0 334:0 335:0 336:0 337:0.8493163 338:1.6803042 339:11.321826 340:32.743946 341:70.346954 342:98.551178 343:75.061417 344:12.958283 345:0 346:0 347:0 348:0 349:13.52759 350:29.841354 351:112.33881 352:268.20496 353:504.20157 354:795.50079 355:987.09088 356:284.3342 357:0 358:0 359:0 360:0 361:2.1934044 362:3.387917 363:20.614954 364:60.431026 365:121.0087 366:190.20178 367:126.34761 368:16.081577 369:0 370:0 371:0 372:0 373:1.2941763 374:4.5772491 375:21.521723 376:61.879166 377:122.9271 378:179.07509 379:111.24738 380:15.401254 381:0 382:0 383:0 384:0 385:2.2150652 386:3.4507208 387:24.860859 388:64.275665 389:129.37338 390:182.69707 391:140.87772 392:22.916323 393:0 394:0 395:0 396:0 397:4.4965916 398:8.8294601 399:45.172523 400:112.00959 401:209.94652 402:314.80731 403:304.84818 404:64.732773 405:0 406:0 407:0 408:0 409:4.3666444 410:8.9899569 411:41.401192 412:102.61317 413:202.53249 414:305.88046 415:330.79373 416:85.240219 417:0 418:0 419:0 420:0 421:3.6397607 422:7.0065594 423:30.500692 424:73.079498 425:132.94467 426:226.70728 427:227.32857 428:59.757549 429:0 430:0 431:0 432:0 433:16.318033 434:35.167606 435:131.5177 436:308.54059 437:566.7995 438:923.65503 439:1139.3579 440:331.13342 441:0 442:0 443:0 444:0 445:4.9838481 446:8.7141733 447:39.793827 448:100.76653 449:183.60669 450:318.35767 451:278.61478 452:62.880894 453:0 454:0 455:0 456:0 457:4.0846205 458:9.9035072 459:40.700603 460:102.2147 461:185.52542 462:307.23083 463:263.5145 464:62.200592 465:0 466:0 467:0 468:0 469:5.0055099 470:8.7769785 471:44.039745 472:104.61118 473:191.97119 474:310.85263 475:293.14487 476:69.715622 477:0 478:0 479:0 480:0 481:7.2870359 482:14.155718 483:64.351395 484:152.34514 485:272.54471 486:442.96313 487:457.11548 488:111.53202 489:0 490:0 491:0 492:0 493:7.1570883 494:14.316215 495:60.580055 496:142.9487 497:265.13068 498:434.03622 499:483.06064 500:132.03957 501:0 502:0 503:0 504:0 505:3.446836 506:8.0510664 507:31.995047 508:68.382179 509:122.76981 510:203.06377 511:253.4426 512:70.960197 513:0 514:0 515:0 516:0 517:16.125109 518:36.212109 519:133.01202 520:303.84344 521:556.62415 522:900.01257 523:1165.4694 524:342.33612 525:0 526:0 527:0 528:0 529:4.7909241 530:9.7586794 531:41.288185 532:96.069275 533:173.43169 534:294.71436 535:304.72849 536:74.083542 537:0 538:0 539:0 540:0 541:3.8916962 542:10.948013 543:42.194923 544:97.51741 545:175.3499 546:283.58737 547:289.62872 548:73.403236 549:0 550:0 551:0 552:0 553:4.8125854 554:9.8214827 555:45.534073 556:99.913986 557:181.7962 558:287.20911 559:319.25867 560:80.91835 561:0 562:0 563:0 564:0 565:7.0941114 566:15.200221 567:65.845734 568:147.64784 569:262.36963 570:419.31976 571:483.22943 572:122.73473 573:0 574:0 575:0 576:0 577:6.9641638 578:15.360718 579:62.074402 580:138.25137 581:254.95534 582:410.39261 583:509.1749 584:143.24229 585:0 586:0 587:0 
